 0.000000E+0000	 2.500002E+0001	-4.000000E+0003	-1.052520E+0002	 7.293313E-0001
 1.000960E-0002	 2.500002E+0001	-3.992180E+0003	-1.032550E+0002	 7.255630E-0001
 2.001920E-0002	 2.500002E+0001	-3.984360E+0003	-1.026910E+0002	 7.241942E-0001
 3.002880E-0002	 2.500002E+0001	-3.976540E+0003	-1.022900E+0002	 7.232518E-0001
 4.003840E-0002	 2.500002E+0001	-3.968720E+0003	-1.020160E+0002	 7.225692E-0001
 5.004800E-0002	 2.500002E+0001	-3.960899E+0003	-1.017890E+0002	 7.221300E-0001
 6.005760E-0002	 2.500002E+0001	-3.953079E+0003	-1.015910E+0002	 7.214129E-0001
 7.006720E-0002	 2.500002E+0001	-3.945259E+0003	-1.014270E+0002	 7.210993E-0001
 8.007680E-0002	 2.500002E+0001	-3.937439E+0003	-1.013250E+0002	 7.208866E-0001
 9.008640E-0002	 2.500002E+0001	-3.929619E+0003	-1.012030E+0002	 7.203300E-0001
 1.000960E-0001	 2.500002E+0001	-3.921799E+0003	-1.011450E+0002	 7.201206E-0001
 1.101056E-0001	 2.500002E+0001	-3.913979E+0003	-1.010670E+0002	 7.198751E-0001
 1.201152E-0001	 2.500002E+0001	-3.906159E+0003	-1.010480E+0002	 7.196296E-0001
 1.301248E-0001	 2.500002E+0001	-3.898338E+0003	-1.010050E+0002	 7.198813E-0001
 1.401344E-0001	 2.500002E+0001	-3.890518E+0003	-1.009950E+0002	 7.193505E-0001
 1.501440E-0001	 2.500002E+0001	-3.882698E+0003	-1.009530E+0002	 7.194834E-0001
 1.601536E-0001	 2.500002E+0001	-3.874878E+0003	-1.009020E+0002	 7.192711E-0001
 1.701632E-0001	 2.500002E+0001	-3.867058E+0003	-1.009090E+0002	 7.193964E-0001
 1.801728E-0001	 2.500002E+0001	-3.859238E+0003	-1.008770E+0002	 7.193364E-0001
 1.901824E-0001	 2.500002E+0001	-3.851418E+0003	-1.008580E+0002	 7.193473E-0001
 2.001920E-0001	 2.500002E+0001	-3.843597E+0003	-1.008760E+0002	 7.191653E-0001
 2.102016E-0001	 2.500002E+0001	-3.835777E+0003	-1.008800E+0002	 7.192405E-0001
 2.202112E-0001	 2.500002E+0001	-3.827957E+0003	-1.008550E+0002	 7.191070E-0001
 2.302208E-0001	 2.500002E+0001	-3.820137E+0003	-1.008490E+0002	 7.188932E-0001
 2.402304E-0001	 2.500002E+0001	-3.812317E+0003	-1.008180E+0002	 7.188508E-0001
 2.502400E-0001	 2.500002E+0001	-3.804497E+0003	-1.007630E+0002	 7.186017E-0001
 2.602496E-0001	 2.500002E+0001	-3.796677E+0003	-1.007510E+0002	 7.186917E-0001
 2.702592E-0001	 2.500002E+0001	-3.788857E+0003	-1.007810E+0002	 7.186485E-0001
 2.802688E-0001	 2.500002E+0001	-3.781036E+0003	-1.007950E+0002	 7.188565E-0001
 2.902784E-0001	 2.500002E+0001	-3.773216E+0003	-1.007700E+0002	 7.189511E-0001
 3.002880E-0001	 2.500002E+0001	-3.765396E+0003	-1.007890E+0002	 7.187779E-0001
 3.102976E-0001	 2.500002E+0001	-3.757576E+0003	-1.007980E+0002	 7.186958E-0001
 3.203072E-0001	 2.500002E+0001	-3.749756E+0003	-1.008060E+0002	 7.187439E-0001
 3.303168E-0001	 2.500002E+0001	-3.741936E+0003	-1.008720E+0002	 7.189381E-0001
 3.403264E-0001	 2.500002E+0001	-3.734116E+0003	-1.008450E+0002	 7.191575E-0001
 3.503360E-0001	 2.500002E+0001	-3.726295E+0003	-1.008660E+0002	 7.189544E-0001
 3.603456E-0001	 2.500002E+0001	-3.718475E+0003	-1.009110E+0002	 7.193491E-0001
 3.703552E-0001	 2.500002E+0001	-3.710655E+0003	-1.009920E+0002	 7.194751E-0001
 3.803648E-0001	 2.500002E+0001	-3.702835E+0003	-1.010660E+0002	 7.196352E-0001
 3.903744E-0001	 2.500002E+0001	-3.695015E+0003	-1.011120E+0002	 7.198528E-0001
 4.003840E-0001	 2.500002E+0001	-3.687195E+0003	-1.011380E+0002	 7.201228E-0001
 4.103936E-0001	 2.500002E+0001	-3.679375E+0003	-1.011650E+0002	 7.200645E-0001
 4.204032E-0001	 2.500002E+0001	-3.671554E+0003	-1.011910E+0002	 7.200031E-0001
 4.304128E-0001	 2.500002E+0001	-3.663734E+0003	-1.012160E+0002	 7.203087E-0001
 4.404224E-0001	 2.500002E+0001	-3.655914E+0003	-1.012470E+0002	 7.203760E-0001
 4.504320E-0001	 2.500002E+0001	-3.648094E+0003	-1.013270E+0002	 7.206528E-0001
 4.604416E-0001	 2.500002E+0001	-3.640274E+0003	-1.014550E+0002	 7.208856E-0001
 4.704512E-0001	 2.500002E+0001	-3.632454E+0003	-1.015100E+0002	 7.211712E-0001
 4.804608E-0001	 2.500002E+0001	-3.624634E+0003	-1.015630E+0002	 7.214221E-0001
 4.904704E-0001	 2.500002E+0001	-3.616813E+0003	-1.016140E+0002	 7.213893E-0001
 5.004800E-0001	 2.500002E+0001	-3.608993E+0003	-1.016640E+0002	 7.216191E-0001
 5.104896E-0001	 2.500002E+0001	-3.601173E+0003	-1.017290E+0002	 7.218853E-0001
 5.204992E-0001	 2.500002E+0001	-3.593353E+0003	-1.018050E+0002	 7.219795E-0001
 5.305088E-0001	 2.500002E+0001	-3.585533E+0003	-1.018860E+0002	 7.222023E-0001
 5.405184E-0001	 2.500002E+0001	-3.577713E+0003	-1.019360E+0002	 7.225602E-0001
 5.505280E-0001	 2.500002E+0001	-3.569893E+0003	-1.020010E+0002	 7.224801E-0001
 5.605376E-0001	 2.500002E+0001	-3.562073E+0003	-1.020840E+0002	 7.227883E-0001
 5.705472E-0001	 2.500002E+0001	-3.554252E+0003	-1.021240E+0002	 7.230423E-0001
 5.805568E-0001	 2.500002E+0001	-3.546432E+0003	-1.022350E+0002	 7.233121E-0001
 5.905664E-0001	 2.500002E+0001	-3.538612E+0003	-1.023180E+0002	 7.234618E-0001
 6.005760E-0001	 2.500002E+0001	-3.530792E+0003	-1.023780E+0002	 7.236368E-0001
 6.105856E-0001	 2.500002E+0001	-3.522972E+0003	-1.024290E+0002	 7.237658E-0001
 6.205952E-0001	 2.500002E+0001	-3.515152E+0003	-1.025180E+0002	 7.239577E-0001
 6.306048E-0001	 2.500002E+0001	-3.507332E+0003	-1.026080E+0002	 7.240641E-0001
 6.406144E-0001	 2.500002E+0001	-3.499511E+0003	-1.026350E+0002	 7.243161E-0001
 6.506240E-0001	 2.500002E+0001	-3.491691E+0003	-1.026840E+0002	 7.244795E-0001
 6.606336E-0001	 2.500002E+0001	-3.483871E+0003	-1.027640E+0002	 7.248966E-0001
 6.706432E-0001	 2.500002E+0001	-3.476051E+0003	-1.028600E+0002	 7.250402E-0001
 6.806528E-0001	 2.500002E+0001	-3.468231E+0003	-1.029550E+0002	 7.251088E-0001
 6.906624E-0001	 2.500002E+0001	-3.460411E+0003	-1.030200E+0002	 7.253272E-0001
 7.006720E-0001	 2.500002E+0001	-3.452591E+0003	-1.031300E+0002	 7.256342E-0001
 7.106816E-0001	 2.500002E+0001	-3.444770E+0003	-1.031470E+0002	 7.258004E-0001
 7.206912E-0001	 2.500002E+0001	-3.436950E+0003	-1.032120E+0002	 7.259229E-0001
 7.307008E-0001	 2.500002E+0001	-3.429130E+0003	-1.033370E+0002	 7.261599E-0001
 7.407104E-0001	 2.500002E+0001	-3.421310E+0003	-1.033930E+0002	 7.262689E-0001
 7.507200E-0001	 2.500002E+0001	-3.413490E+0003	-1.034400E+0002	 7.266002E-0001
 7.607296E-0001	 2.500002E+0001	-3.405670E+0003	-1.035170E+0002	 7.269282E-0001
 7.707392E-0001	 2.500002E+0001	-3.397850E+0003	-1.036390E+0002	 7.270468E-0001
 7.807488E-0001	 2.500002E+0001	-3.390030E+0003	-1.036570E+0002	 7.271271E-0001
 7.907584E-0001	 2.500002E+0001	-3.382209E+0003	-1.037340E+0002	 7.271448E-0001
 8.007680E-0001	 2.500002E+0001	-3.374389E+0003	-1.038140E+0002	 7.272371E-0001
 8.107776E-0001	 2.500002E+0001	-3.366569E+0003	-1.038270E+0002	 7.276055E-0001
 8.207872E-0001	 2.500002E+0001	-3.358749E+0003	-1.039230E+0002	 7.275550E-0001
 8.307968E-0001	 2.500002E+0001	-3.350929E+0003	-1.040230E+0002	 7.279397E-0001
 8.408064E-0001	 2.500002E+0001	-3.343109E+0003	-1.040610E+0002	 7.276693E-0001
 8.508160E-0001	 2.500002E+0001	-3.335288E+0003	-1.041360E+0002	 7.280663E-0001
 8.608256E-0001	 2.500002E+0001	-3.327468E+0003	-1.042190E+0002	 7.283495E-0001
 8.708352E-0001	 2.500002E+0001	-3.319648E+0003	-1.042490E+0002	 7.282091E-0001
 8.808448E-0001	 2.500002E+0001	-3.311828E+0003	-1.043020E+0002	 7.285737E-0001
 8.908544E-0001	 2.500002E+0001	-3.304008E+0003	-1.043810E+0002	 7.284878E-0001
 9.008640E-0001	 2.500002E+0001	-3.296188E+0003	-1.044470E+0002	 7.286195E-0001
 9.108736E-0001	 2.500002E+0001	-3.288368E+0003	-1.045400E+0002	 7.290122E-0001
 9.208832E-0001	 2.500002E+0001	-3.280548E+0003	-1.046140E+0002	 7.293402E-0001
 9.308928E-0001	 2.500002E+0001	-3.272728E+0003	-1.047040E+0002	 7.294446E-0001
 9.409024E-0001	 2.500002E+0001	-3.264907E+0003	-1.048130E+0002	 7.298207E-0001
 9.509120E-0001	 2.500002E+0001	-3.257087E+0003	-1.048860E+0002	 7.297931E-0001
 9.609216E-0001	 2.500002E+0001	-3.249267E+0003	-1.049520E+0002	 7.300858E-0001
 9.709312E-0001	 2.500002E+0001	-3.241447E+0003	-1.049950E+0002	 7.303428E-0001
 9.809408E-0001	 2.500002E+0001	-3.233627E+0003	-1.050120E+0002	 7.303272E-0001
 9.909504E-0001	 2.500002E+0001	-3.225807E+0003	-1.051280E+0002	 7.304963E-0001
 1.000960E+0000	 2.500002E+0001	-3.217986E+0003	-1.052170E+0002	 7.305309E-0001
 1.010970E+0000	 2.500002E+0001	-3.210166E+0003	-1.052950E+0002	 7.308844E-0001
 1.020979E+0000	 2.500002E+0001	-3.202346E+0003	-1.053700E+0002	 7.309376E-0001
 1.030989E+0000	 2.500002E+0001	-3.194526E+0003	-1.054670E+0002	 7.311526E-0001
 1.040998E+0000	 2.500002E+0001	-3.186706E+0003	-1.055350E+0002	 7.310909E-0001
 1.051008E+0000	 2.500002E+0001	-3.178886E+0003	-1.055530E+0002	 7.311672E-0001
 1.061018E+0000	 2.500002E+0001	-3.171066E+0003	-1.056180E+0002	 7.312564E-0001
 1.071027E+0000	 2.500002E+0001	-3.163246E+0003	-1.056710E+0002	 7.313957E-0001
 1.081037E+0000	 2.500002E+0001	-3.155425E+0003	-1.057400E+0002	 7.316892E-0001
 1.091046E+0000	 2.500002E+0001	-3.147605E+0003	-1.058150E+0002	 7.319099E-0001
 1.101056E+0000	 2.500002E+0001	-3.139785E+0003	-1.059120E+0002	 7.318520E-0001
 1.111066E+0000	 2.500002E+0001	-3.131965E+0003	-1.059950E+0002	 7.323333E-0001
 1.121075E+0000	 2.500002E+0001	-3.124145E+0003	-1.060680E+0002	 7.323187E-0001
 1.131085E+0000	 2.500002E+0001	-3.116325E+0003	-1.061590E+0002	 7.323772E-0001
 1.141094E+0000	 2.500002E+0001	-3.108505E+0003	-1.061920E+0002	 7.323568E-0001
 1.151104E+0000	 2.500002E+0001	-3.100684E+0003	-1.062460E+0002	 7.325063E-0001
 1.161114E+0000	 2.500002E+0001	-3.092864E+0003	-1.063450E+0002	 7.328443E-0001
 1.171123E+0000	 2.500002E+0001	-3.085044E+0003	-1.064190E+0002	 7.327798E-0001
 1.181133E+0000	 2.500002E+0001	-3.077224E+0003	-1.064460E+0002	 7.328632E-0001
 1.191142E+0000	 2.500002E+0001	-3.069404E+0003	-1.065530E+0002	 7.330262E-0001
 1.201152E+0000	 2.500002E+0001	-3.061584E+0003	-1.066000E+0002	 7.332465E-0001
 1.211162E+0000	 2.500002E+0001	-3.053764E+0003	-1.067250E+0002	 7.334321E-0001
 1.221171E+0000	 2.500002E+0001	-3.045944E+0003	-1.068330E+0002	 7.335776E-0001
 1.231181E+0000	 2.500002E+0001	-3.038123E+0003	-1.068870E+0002	 7.336930E-0001
 1.241190E+0000	 2.500002E+0001	-3.030303E+0003	-1.069560E+0002	 7.338127E-0001
 1.251200E+0000	 2.500002E+0001	-3.022483E+0003	-1.069970E+0002	 7.338927E-0001
 1.261210E+0000	 2.500002E+0001	-3.014663E+0003	-1.070480E+0002	 7.340791E-0001
 1.271219E+0000	 2.500002E+0001	-3.006843E+0003	-1.071580E+0002	 7.342072E-0001
 1.281229E+0000	 2.500002E+0001	-2.999023E+0003	-1.072480E+0002	 7.343884E-0001
 1.291238E+0000	 2.500002E+0001	-2.991203E+0003	-1.072890E+0002	 7.341760E-0001
 1.301248E+0000	 2.500002E+0001	-2.983382E+0003	-1.073860E+0002	 7.344686E-0001
 1.311258E+0000	 2.500002E+0001	-2.975562E+0003	-1.074680E+0002	 7.347467E-0001
 1.321267E+0000	 2.500002E+0001	-2.967742E+0003	-1.075850E+0002	 7.348595E-0001
 1.331277E+0000	 2.500002E+0001	-2.959922E+0003	-1.076590E+0002	 7.349380E-0001
 1.341286E+0000	 2.500002E+0001	-2.952102E+0003	-1.077490E+0002	 7.349462E-0001
 1.351296E+0000	 2.500002E+0001	-2.944282E+0003	-1.078230E+0002	 7.351898E-0001
 1.361306E+0000	 2.500002E+0001	-2.936462E+0003	-1.078610E+0002	 7.350934E-0001
 1.371315E+0000	 2.500002E+0001	-2.928641E+0003	-1.078690E+0002	 7.351433E-0001
 1.381325E+0000	 2.500002E+0001	-2.920821E+0003	-1.079730E+0002	 7.354920E-0001
 1.391334E+0000	 2.500002E+0001	-2.913001E+0003	-1.080560E+0002	 7.352575E-0001
 1.401344E+0000	 2.500002E+0001	-2.905181E+0003	-1.081760E+0002	 7.356584E-0001
 1.411354E+0000	 2.500002E+0001	-2.897361E+0003	-1.082510E+0002	 7.356935E-0001
 1.421363E+0000	 2.500002E+0001	-2.889541E+0003	-1.083310E+0002	 7.357602E-0001
 1.431373E+0000	 2.500002E+0001	-2.881721E+0003	-1.084040E+0002	 7.358661E-0001
 1.441382E+0000	 2.500002E+0001	-2.873900E+0003	-1.084860E+0002	 7.362033E-0001
 1.451392E+0000	 2.500002E+0001	-2.866080E+0003	-1.085860E+0002	 7.361486E-0001
 1.461402E+0000	 2.500002E+0001	-2.858260E+0003	-1.086490E+0002	 7.361270E-0001
 1.471411E+0000	 2.500002E+0001	-2.850440E+0003	-1.087230E+0002	 7.363479E-0001
 1.481421E+0000	 2.500002E+0001	-2.842620E+0003	-1.087840E+0002	 7.365599E-0001
 1.491430E+0000	 2.500002E+0001	-2.834800E+0003	-1.088800E+0002	 7.367280E-0001
 1.501440E+0000	 2.500002E+0001	-2.826980E+0003	-1.090080E+0002	 7.366955E-0001
 1.511450E+0000	 2.500002E+0001	-2.819159E+0003	-1.091040E+0002	 7.369098E-0001
 1.521459E+0000	 2.500002E+0001	-2.811339E+0003	-1.091460E+0002	 7.368372E-0001
 1.531469E+0000	 2.500002E+0001	-2.803519E+0003	-1.092160E+0002	 7.369928E-0001
 1.541478E+0000	 2.500002E+0001	-2.795699E+0003	-1.092870E+0002	 7.371722E-0001
 1.551488E+0000	 2.500002E+0001	-2.787879E+0003	-1.093620E+0002	 7.372722E-0001
 1.561498E+0000	 2.500002E+0001	-2.780059E+0003	-1.094800E+0002	 7.373563E-0001
 1.571507E+0000	 2.500002E+0001	-2.772239E+0003	-1.095720E+0002	 7.374890E-0001
 1.581517E+0000	 2.500002E+0001	-2.764419E+0003	-1.096370E+0002	 7.377066E-0001
 1.591526E+0000	 2.500002E+0001	-2.756598E+0003	-1.097290E+0002	 7.378879E-0001
 1.601536E+0000	 2.500002E+0001	-2.748778E+0003	-1.098020E+0002	 7.377311E-0001
 1.611546E+0000	 2.500002E+0001	-2.740958E+0003	-1.099160E+0002	 7.379596E-0001
 1.621555E+0000	 2.500002E+0001	-2.733138E+0003	-1.099520E+0002	 7.381074E-0001
 1.631565E+0000	 2.500002E+0001	-2.725318E+0003	-1.100480E+0002	 7.381933E-0001
 1.641574E+0000	 2.500002E+0001	-2.717498E+0003	-1.101340E+0002	 7.382102E-0001
 1.651584E+0000	 2.500002E+0001	-2.709678E+0003	-1.102200E+0002	 7.384054E-0001
 1.661594E+0000	 2.500002E+0001	-2.701857E+0003	-1.102980E+0002	 7.381807E-0001
 1.671603E+0000	 2.500002E+0001	-2.694037E+0003	-1.103980E+0002	 7.383723E-0001
 1.681613E+0000	 2.500002E+0001	-2.686217E+0003	-1.105160E+0002	 7.384482E-0001
 1.691622E+0000	 2.500002E+0001	-2.678397E+0003	-1.106000E+0002	 7.384468E-0001
 1.701632E+0000	 2.500002E+0001	-2.670577E+0003	-1.106600E+0002	 7.385123E-0001
 1.711642E+0000	 2.500002E+0001	-2.662757E+0003	-1.107240E+0002	 7.385962E-0001
 1.721651E+0000	 2.500002E+0001	-2.654937E+0003	-1.108190E+0002	 7.385144E-0001
 1.731661E+0000	 2.500002E+0001	-2.647117E+0003	-1.109050E+0002	 7.387778E-0001
 1.741670E+0000	 2.500002E+0001	-2.639296E+0003	-1.110030E+0002	 7.389109E-0001
 1.751680E+0000	 2.500002E+0001	-2.631476E+0003	-1.111090E+0002	 7.390417E-0001
 1.761690E+0000	 2.500002E+0001	-2.623656E+0003	-1.111540E+0002	 7.390898E-0001
 1.771699E+0000	 2.500002E+0001	-2.615836E+0003	-1.112760E+0002	 7.390297E-0001
 1.781709E+0000	 2.500002E+0001	-2.608016E+0003	-1.113450E+0002	 7.389815E-0001
 1.791718E+0000	 2.500002E+0001	-2.600196E+0003	-1.114590E+0002	 7.390820E-0001
 1.801728E+0000	 2.500002E+0001	-2.592375E+0003	-1.115300E+0002	 7.391868E-0001
 1.811738E+0000	 2.500002E+0001	-2.584555E+0003	-1.116280E+0002	 7.393657E-0001
 1.821747E+0000	 2.500002E+0001	-2.576735E+0003	-1.117200E+0002	 7.394167E-0001
 1.831757E+0000	 2.500002E+0001	-2.568915E+0003	-1.118180E+0002	 7.393610E-0001
 1.841766E+0000	 2.500002E+0001	-2.561095E+0003	-1.119040E+0002	 7.394214E-0001
 1.851776E+0000	 2.500002E+0001	-2.553275E+0003	-1.120330E+0002	 7.397906E-0001
 1.861786E+0000	 2.500002E+0001	-2.545455E+0003	-1.121140E+0002	 7.396693E-0001
 1.871795E+0000	 2.500002E+0001	-2.537635E+0003	-1.121920E+0002	 7.397849E-0001
 1.881805E+0000	 2.500002E+0001	-2.529814E+0003	-1.122940E+0002	 7.397976E-0001
 1.891814E+0000	 2.500002E+0001	-2.521994E+0003	-1.123800E+0002	 7.396034E-0001
 1.901824E+0000	 2.500002E+0001	-2.514174E+0003	-1.124550E+0002	 7.398259E-0001
 1.911834E+0000	 2.500002E+0001	-2.506354E+0003	-1.125510E+0002	 7.399661E-0001
 1.921843E+0000	 2.500002E+0001	-2.498534E+0003	-1.126260E+0002	 7.399873E-0001
 1.931853E+0000	 2.500002E+0001	-2.490714E+0003	-1.127310E+0002	 7.401402E-0001
 1.941862E+0000	 2.500002E+0001	-2.482894E+0003	-1.128150E+0002	 7.401023E-0001
 1.951872E+0000	 2.500002E+0001	-2.475073E+0003	-1.129000E+0002	 7.399914E-0001
 1.961882E+0000	 2.500002E+0001	-2.467253E+0003	-1.130160E+0002	 7.401359E-0001
 1.971891E+0000	 2.500002E+0001	-2.459433E+0003	-1.131170E+0002	 7.401427E-0001
 1.981901E+0000	 2.500002E+0001	-2.451613E+0003	-1.132020E+0002	 7.402622E-0001
 1.991910E+0000	 2.500002E+0001	-2.443793E+0003	-1.132970E+0002	 7.401856E-0001
 2.001920E+0000	 2.500002E+0001	-2.435973E+0003	-1.133410E+0002	 7.402335E-0001
 2.011930E+0000	 2.500002E+0001	-2.428153E+0003	-1.134470E+0002	 7.403794E-0001
 2.021939E+0000	 2.500002E+0001	-2.420333E+0003	-1.135190E+0002	 7.403875E-0001
 2.031949E+0000	 2.500002E+0001	-2.412512E+0003	-1.136010E+0002	 7.404853E-0001
 2.041958E+0000	 2.500002E+0001	-2.404692E+0003	-1.137080E+0002	 7.404707E-0001
 2.051968E+0000	 2.500002E+0001	-2.396872E+0003	-1.137860E+0002	 7.402737E-0001
 2.061978E+0000	 2.500002E+0001	-2.389052E+0003	-1.138580E+0002	 7.405092E-0001
 2.071987E+0000	 2.500002E+0001	-2.381232E+0003	-1.139530E+0002	 7.407454E-0001
 2.081997E+0000	 2.500002E+0001	-2.373412E+0003	-1.140580E+0002	 7.404733E-0001
 2.092006E+0000	 2.500002E+0001	-2.365592E+0003	-1.141670E+0002	 7.403279E-0001
 2.102016E+0000	 2.500002E+0001	-2.357771E+0003	-1.142540E+0002	 7.403785E-0001
 2.112026E+0000	 2.500002E+0001	-2.349951E+0003	-1.143120E+0002	 7.404344E-0001
 2.122035E+0000	 2.500002E+0001	-2.342131E+0003	-1.143810E+0002	 7.404736E-0001
 2.132045E+0000	 2.500002E+0001	-2.334311E+0003	-1.144780E+0002	 7.404809E-0001
 2.142054E+0000	 2.500002E+0001	-2.326491E+0003	-1.145730E+0002	 7.405416E-0001
 2.152064E+0000	 2.500002E+0001	-2.318671E+0003	-1.146840E+0002	 7.404594E-0001
 2.162074E+0000	 2.500002E+0001	-2.310851E+0003	-1.147740E+0002	 7.406651E-0001
 2.172083E+0000	 2.500002E+0001	-2.303030E+0003	-1.148550E+0002	 7.407264E-0001
 2.182093E+0000	 2.500002E+0001	-2.295210E+0003	-1.149690E+0002	 7.406498E-0001
 2.192102E+0000	 2.500002E+0001	-2.287390E+0003	-1.150390E+0002	 7.407459E-0001
 2.202112E+0000	 2.500002E+0001	-2.279570E+0003	-1.151280E+0002	 7.406090E-0001
 2.212122E+0000	 2.500002E+0001	-2.271750E+0003	-1.151980E+0002	 7.406017E-0001
 2.222131E+0000	 2.500002E+0001	-2.263930E+0003	-1.152510E+0002	 7.405532E-0001
 2.232141E+0000	 2.500002E+0001	-2.256110E+0003	-1.153090E+0002	 7.405289E-0001
 2.242150E+0000	 2.500002E+0001	-2.248290E+0003	-1.153630E+0002	 7.403030E-0001
 2.252160E+0000	 2.500002E+0001	-2.240469E+0003	-1.154640E+0002	 7.402315E-0001
 2.262170E+0000	 2.500002E+0001	-2.232649E+0003	-1.155600E+0002	 7.406334E-0001
 2.272179E+0000	 2.500002E+0001	-2.224829E+0003	-1.156310E+0002	 7.404654E-0001
 2.282189E+0000	 2.500002E+0001	-2.217009E+0003	-1.157300E+0002	 7.406827E-0001
 2.292198E+0000	 2.500002E+0001	-2.209189E+0003	-1.158120E+0002	 7.406578E-0001
 2.302208E+0000	 2.500002E+0001	-2.201369E+0003	-1.159050E+0002	 7.404586E-0001
 2.312218E+0000	 2.500002E+0001	-2.193548E+0003	-1.160090E+0002	 7.406570E-0001
 2.322227E+0000	 2.500002E+0001	-2.185728E+0003	-1.160790E+0002	 7.405077E-0001
 2.332237E+0000	 2.500002E+0001	-2.177908E+0003	-1.161540E+0002	 7.404787E-0001
 2.342246E+0000	 2.500002E+0001	-2.170088E+0003	-1.162790E+0002	 7.404682E-0001
 2.352256E+0000	 2.500002E+0001	-2.162268E+0003	-1.163600E+0002	 7.403017E-0001
 2.362266E+0000	 2.500002E+0001	-2.154448E+0003	-1.164300E+0002	 7.403753E-0001
 2.372275E+0000	 2.500002E+0001	-2.146628E+0003	-1.164900E+0002	 7.403820E-0001
 2.382285E+0000	 2.500002E+0001	-2.138808E+0003	-1.165970E+0002	 7.402269E-0001
 2.392294E+0000	 2.500002E+0001	-2.130987E+0003	-1.166740E+0002	 7.403773E-0001
 2.402304E+0000	 2.500002E+0001	-2.123167E+0003	-1.167700E+0002	 7.403783E-0001
 2.412314E+0000	 2.500002E+0001	-2.115347E+0003	-1.168300E+0002	 7.403539E-0001
 2.422323E+0000	 2.500002E+0001	-2.107527E+0003	-1.169200E+0002	 7.401334E-0001
 2.432333E+0000	 2.500002E+0001	-2.099707E+0003	-1.170230E+0002	 7.401828E-0001
 2.442342E+0000	 2.500002E+0001	-2.091887E+0003	-1.170710E+0002	 7.399338E-0001
 2.452352E+0000	 2.500002E+0001	-2.084067E+0003	-1.171630E+0002	 7.399402E-0001
 2.462362E+0000	 2.500002E+0001	-2.076246E+0003	-1.172370E+0002	 7.400641E-0001
 2.472371E+0000	 2.500002E+0001	-2.068426E+0003	-1.173300E+0002	 7.399544E-0001
 2.482381E+0000	 2.500002E+0001	-2.060606E+0003	-1.174120E+0002	 7.400011E-0001
 2.492390E+0000	 2.500002E+0001	-2.052786E+0003	-1.174610E+0002	 7.398271E-0001
 2.502400E+0000	 2.500002E+0001	-2.044966E+0003	-1.175580E+0002	 7.399499E-0001
 2.512410E+0000	 2.500002E+0001	-2.037146E+0003	-1.176410E+0002	 7.399020E-0001
 2.522419E+0000	 2.500002E+0001	-2.029326E+0003	-1.176710E+0002	 7.397026E-0001
 2.532429E+0000	 2.500002E+0001	-2.021506E+0003	-1.177730E+0002	 7.398620E-0001
 2.542438E+0000	 2.500002E+0001	-2.013685E+0003	-1.178160E+0002	 7.397561E-0001
 2.552448E+0000	 2.500002E+0001	-2.005865E+0003	-1.179270E+0002	 7.397760E-0001
 2.562458E+0000	 2.500002E+0001	-1.998045E+0003	-1.180020E+0002	 7.396514E-0001
 2.572467E+0000	 2.500002E+0001	-1.990225E+0003	-1.180650E+0002	 7.395807E-0001
 2.582477E+0000	 2.500002E+0001	-1.982405E+0003	-1.181300E+0002	 7.395828E-0001
 2.592486E+0000	 2.500002E+0001	-1.974585E+0003	-1.182390E+0002	 7.395968E-0001
 2.602496E+0000	 2.500002E+0001	-1.966765E+0003	-1.183200E+0002	 7.394516E-0001
 2.612506E+0000	 2.500002E+0001	-1.958944E+0003	-1.183790E+0002	 7.395052E-0001
 2.622515E+0000	 2.500002E+0001	-1.951124E+0003	-1.184630E+0002	 7.395522E-0001
 2.632525E+0000	 2.500002E+0001	-1.943304E+0003	-1.185350E+0002	 7.395111E-0001
 2.642534E+0000	 2.500002E+0001	-1.935484E+0003	-1.186020E+0002	 7.392197E-0001
 2.652544E+0000	 2.500002E+0001	-1.927664E+0003	-1.186910E+0002	 7.391730E-0001
 2.662554E+0000	 2.500002E+0001	-1.919844E+0003	-1.187560E+0002	 7.392432E-0001
 2.672563E+0000	 2.500002E+0001	-1.912024E+0003	-1.188570E+0002	 7.390273E-0001
 2.682573E+0000	 2.500002E+0001	-1.904204E+0003	-1.189310E+0002	 7.388750E-0001
 2.692582E+0000	 2.500002E+0001	-1.896383E+0003	-1.190220E+0002	 7.390676E-0001
 2.702592E+0000	 2.500002E+0001	-1.888563E+0003	-1.190780E+0002	 7.387841E-0001
 2.712602E+0000	 2.500002E+0001	-1.880743E+0003	-1.191640E+0002	 7.388781E-0001
 2.722611E+0000	 2.500002E+0001	-1.872923E+0003	-1.192290E+0002	 7.385007E-0001
 2.732621E+0000	 2.500002E+0001	-1.865103E+0003	-1.193040E+0002	 7.384095E-0001
 2.742630E+0000	 2.500002E+0001	-1.857283E+0003	-1.193840E+0002	 7.383996E-0001
 2.752640E+0000	 2.500002E+0001	-1.849462E+0003	-1.194500E+0002	 7.381442E-0001
 2.762650E+0000	 2.500002E+0001	-1.841642E+0003	-1.195060E+0002	 7.381725E-0001
 2.772659E+0000	 2.500002E+0001	-1.833822E+0003	-1.195710E+0002	 7.383335E-0001
 2.782669E+0000	 2.500002E+0001	-1.826002E+0003	-1.196550E+0002	 7.382363E-0001
 2.792678E+0000	 2.500002E+0001	-1.818182E+0003	-1.197390E+0002	 7.380540E-0001
 2.802688E+0000	 2.500002E+0001	-1.810362E+0003	-1.198110E+0002	 7.381026E-0001
 2.812698E+0000	 2.500002E+0001	-1.802542E+0003	-1.198860E+0002	 7.380154E-0001
 2.822707E+0000	 2.500002E+0001	-1.794722E+0003	-1.199550E+0002	 7.379708E-0001
 2.832717E+0000	 2.500002E+0001	-1.786901E+0003	-1.200500E+0002	 7.377504E-0001
 2.842726E+0000	 2.500002E+0001	-1.779081E+0003	-1.201160E+0002	 7.377512E-0001
 2.852736E+0000	 2.500002E+0001	-1.771261E+0003	-1.201940E+0002	 7.376840E-0001
 2.862746E+0000	 2.500002E+0001	-1.763441E+0003	-1.202680E+0002	 7.377635E-0001
 2.872755E+0000	 2.500002E+0001	-1.755621E+0003	-1.203370E+0002	 7.375629E-0001
 2.882765E+0000	 2.500002E+0001	-1.747801E+0003	-1.204000E+0002	 7.375360E-0001
 2.892774E+0000	 2.500002E+0001	-1.739981E+0003	-1.204490E+0002	 7.372058E-0001
 2.902784E+0000	 2.500002E+0001	-1.732160E+0003	-1.205340E+0002	 7.371384E-0001
 2.912794E+0000	 2.500002E+0001	-1.724340E+0003	-1.206120E+0002	 7.370546E-0001
 2.922803E+0000	 2.500002E+0001	-1.716520E+0003	-1.206690E+0002	 7.372732E-0001
 2.932813E+0000	 2.500002E+0001	-1.708700E+0003	-1.207350E+0002	 7.369355E-0001
 2.942822E+0000	 2.500002E+0001	-1.700880E+0003	-1.208150E+0002	 7.370695E-0001
 2.952832E+0000	 2.500002E+0001	-1.693060E+0003	-1.208740E+0002	 7.368199E-0001
 2.962842E+0000	 2.500002E+0001	-1.685240E+0003	-1.209130E+0002	 7.368255E-0001
 2.972851E+0000	 2.500002E+0001	-1.677419E+0003	-1.210350E+0002	 7.367986E-0001
 2.982861E+0000	 2.500002E+0001	-1.669599E+0003	-1.210880E+0002	 7.366460E-0001
 2.992870E+0000	 2.500002E+0001	-1.661779E+0003	-1.211220E+0002	 7.364183E-0001
 3.002880E+0000	 2.500002E+0001	-1.653959E+0003	-1.212070E+0002	 7.364700E-0001
 3.012890E+0000	 2.500002E+0001	-1.646139E+0003	-1.212820E+0002	 7.365361E-0001
 3.022899E+0000	 2.500002E+0001	-1.638319E+0003	-1.213250E+0002	 7.364736E-0001
 3.032909E+0000	 2.500002E+0001	-1.630499E+0003	-1.214080E+0002	 7.363479E-0001
 3.042918E+0000	 2.500002E+0001	-1.622679E+0003	-1.214620E+0002	 7.361926E-0001
 3.052928E+0000	 2.500002E+0001	-1.614858E+0003	-1.215360E+0002	 7.362145E-0001
 3.062938E+0000	 2.500002E+0001	-1.607038E+0003	-1.215810E+0002	 7.360009E-0001
 3.072947E+0000	 2.500002E+0001	-1.599218E+0003	-1.216690E+0002	 7.360999E-0001
 3.082957E+0000	 2.500002E+0001	-1.591398E+0003	-1.217310E+0002	 7.359060E-0001
 3.092966E+0000	 2.500002E+0001	-1.583578E+0003	-1.218010E+0002	 7.357227E-0001
 3.102976E+0000	 2.500002E+0001	-1.575758E+0003	-1.218670E+0002	 7.357989E-0001
 3.112986E+0000	 2.500002E+0001	-1.567938E+0003	-1.219370E+0002	 7.358101E-0001
 3.122995E+0000	 2.500002E+0001	-1.560117E+0003	-1.219880E+0002	 7.355612E-0001
 3.133005E+0000	 2.500002E+0001	-1.552297E+0003	-1.220570E+0002	 7.353440E-0001
 3.143014E+0000	 2.500002E+0001	-1.544477E+0003	-1.220980E+0002	 7.354676E-0001
 3.153024E+0000	 2.500002E+0001	-1.536657E+0003	-1.221810E+0002	 7.350654E-0001
 3.163034E+0000	 2.500002E+0001	-1.528837E+0003	-1.222410E+0002	 7.349763E-0001
 3.173043E+0000	 2.500002E+0001	-1.521017E+0003	-1.222810E+0002	 7.351445E-0001
 3.183053E+0000	 2.500002E+0001	-1.513197E+0003	-1.223510E+0002	 7.350837E-0001
 3.193062E+0000	 2.500002E+0001	-1.505377E+0003	-1.224200E+0002	 7.348133E-0001
 3.203072E+0000	 2.500002E+0001	-1.497556E+0003	-1.224800E+0002	 7.347486E-0001
 3.213082E+0000	 2.500002E+0001	-1.489736E+0003	-1.225340E+0002	 7.344991E-0001
 3.223091E+0000	 2.500002E+0001	-1.481916E+0003	-1.225890E+0002	 7.346108E-0001
 3.233101E+0000	 2.500002E+0001	-1.474096E+0003	-1.226660E+0002	 7.346325E-0001
 3.243110E+0000	 2.500002E+0001	-1.466276E+0003	-1.227290E+0002	 7.344949E-0001
 3.253120E+0000	 2.500002E+0001	-1.458456E+0003	-1.227990E+0002	 7.343371E-0001
 3.263130E+0000	 2.500002E+0001	-1.450635E+0003	-1.228330E+0002	 7.342478E-0001
 3.273139E+0000	 2.500002E+0001	-1.442815E+0003	-1.229090E+0002	 7.341035E-0001
 3.283149E+0000	 2.500002E+0001	-1.434995E+0003	-1.229480E+0002	 7.340623E-0001
 3.293158E+0000	 2.500002E+0001	-1.427175E+0003	-1.230160E+0002	 7.338764E-0001
 3.303168E+0000	 2.500002E+0001	-1.419355E+0003	-1.230720E+0002	 7.338303E-0001
 3.313178E+0000	 2.500002E+0001	-1.411535E+0003	-1.231400E+0002	 7.335805E-0001
 3.323187E+0000	 2.500002E+0001	-1.403715E+0003	-1.231920E+0002	 7.335591E-0001
 3.333197E+0000	 2.500002E+0001	-1.395895E+0003	-1.232550E+0002	 7.335871E-0001
 3.343206E+0000	 2.500002E+0001	-1.388074E+0003	-1.232950E+0002	 7.333292E-0001
 3.353216E+0000	 2.500002E+0001	-1.380254E+0003	-1.233650E+0002	 7.333568E-0001
 3.363226E+0000	 2.500002E+0001	-1.372434E+0003	-1.234070E+0002	 7.331886E-0001
 3.373235E+0000	 2.500002E+0001	-1.364614E+0003	-1.234650E+0002	 7.330141E-0001
 3.383245E+0000	 2.500002E+0001	-1.356794E+0003	-1.235340E+0002	 7.327345E-0001
 3.393254E+0000	 2.500002E+0001	-1.348974E+0003	-1.235860E+0002	 7.327416E-0001
 3.403264E+0000	 2.500002E+0001	-1.341154E+0003	-1.236540E+0002	 7.327888E-0001
 3.413274E+0000	 2.500002E+0001	-1.333333E+0003	-1.237020E+0002	 7.325527E-0001
 3.423283E+0000	 2.500002E+0001	-1.325513E+0003	-1.237520E+0002	 7.324548E-0001
 3.433293E+0000	 2.500002E+0001	-1.317693E+0003	-1.238310E+0002	 7.324145E-0001
 3.443302E+0000	 2.500002E+0001	-1.309873E+0003	-1.238550E+0002	 7.321783E-0001
 3.453312E+0000	 2.500002E+0001	-1.302053E+0003	-1.239350E+0002	 7.320194E-0001
 3.463322E+0000	 2.500002E+0001	-1.294233E+0003	-1.239540E+0002	 7.320774E-0001
 3.473331E+0000	 2.500002E+0001	-1.286413E+0003	-1.240280E+0002	 7.319687E-0001
 3.483341E+0000	 2.500002E+0001	-1.278593E+0003	-1.240650E+0002	 7.320003E-0001
 3.493350E+0000	 2.500002E+0001	-1.270772E+0003	-1.241190E+0002	 7.321100E-0001
 3.503360E+0000	 2.500002E+0001	-1.262952E+0003	-1.241680E+0002	 7.317109E-0001
 3.513370E+0000	 2.500002E+0001	-1.255132E+0003	-1.241990E+0002	 7.317401E-0001
 3.523379E+0000	 2.500002E+0001	-1.247312E+0003	-1.242560E+0002	 7.316379E-0001
 3.533389E+0000	 2.500002E+0001	-1.239492E+0003	-1.243150E+0002	 7.312237E-0001
 3.543398E+0000	 2.500002E+0001	-1.231672E+0003	-1.243580E+0002	 7.310690E-0001
 3.553408E+0000	 2.500002E+0001	-1.223852E+0003	-1.243970E+0002	 7.311358E-0001
 3.563418E+0000	 2.500002E+0001	-1.216031E+0003	-1.244690E+0002	 7.308456E-0001
 3.573427E+0000	 2.500002E+0001	-1.208211E+0003	-1.245280E+0002	 7.310842E-0001
 3.583437E+0000	 2.500002E+0001	-1.200391E+0003	-1.245860E+0002	 7.307398E-0001
 3.593446E+0000	 2.500002E+0001	-1.192571E+0003	-1.246340E+0002	 7.307213E-0001
 3.603456E+0000	 2.500002E+0001	-1.184751E+0003	-1.246810E+0002	 7.306102E-0001
 3.613466E+0000	 2.500002E+0001	-1.176931E+0003	-1.246970E+0002	 7.304214E-0001
 3.623475E+0000	 2.500002E+0001	-1.169111E+0003	-1.247390E+0002	 7.306074E-0001
 3.633485E+0000	 2.500002E+0001	-1.161290E+0003	-1.248010E+0002	 7.305130E-0001
 3.643494E+0000	 2.500002E+0001	-1.153470E+0003	-1.248590E+0002	 7.304226E-0001
 3.653504E+0000	 2.500002E+0001	-1.145650E+0003	-1.249210E+0002	 7.299499E-0001
 3.663514E+0000	 2.500002E+0001	-1.137830E+0003	-1.249740E+0002	 7.300053E-0001
 3.673523E+0000	 2.500002E+0001	-1.130010E+0003	-1.249950E+0002	 7.300853E-0001
 3.683533E+0000	 2.500002E+0001	-1.122190E+0003	-1.250640E+0002	 7.298092E-0001
 3.693542E+0000	 2.500002E+0001	-1.114370E+0003	-1.251000E+0002	 7.299257E-0001
 3.703552E+0000	 2.500002E+0001	-1.106549E+0003	-1.251580E+0002	 7.294381E-0001
 3.713562E+0000	 2.500002E+0001	-1.098729E+0003	-1.252080E+0002	 7.294017E-0001
 3.723571E+0000	 2.500002E+0001	-1.090909E+0003	-1.252520E+0002	 7.293235E-0001
 3.733581E+0000	 2.500002E+0001	-1.083089E+0003	-1.253070E+0002	 7.291875E-0001
 3.743590E+0000	 2.500002E+0001	-1.075269E+0003	-1.253530E+0002	 7.291863E-0001
 3.753600E+0000	 2.500002E+0001	-1.067449E+0003	-1.254100E+0002	 7.290695E-0001
 3.763610E+0000	 2.500002E+0001	-1.059629E+0003	-1.254230E+0002	 7.289345E-0001
 3.773619E+0000	 2.500002E+0001	-1.051808E+0003	-1.254570E+0002	 7.289317E-0001
 3.783629E+0000	 2.500002E+0001	-1.043988E+0003	-1.255330E+0002	 7.287382E-0001
 3.793638E+0000	 2.500002E+0001	-1.036168E+0003	-1.255540E+0002	 7.286514E-0001
 3.803648E+0000	 2.500002E+0001	-1.028348E+0003	-1.255960E+0002	 7.283997E-0001
 3.813658E+0000	 2.500002E+0001	-1.020527E+0003	-1.256600E+0002	 7.283015E-0001
 3.823667E+0000	 2.500002E+0001	-1.012707E+0003	-1.257000E+0002	 7.282763E-0001
 3.833677E+0000	 2.500002E+0001	-1.004887E+0003	-1.257360E+0002	 7.281106E-0001
 3.843686E+0000	 2.500002E+0001	-9.970675E+0002	-1.257750E+0002	 7.280405E-0001
 3.853696E+0000	 2.500002E+0001	-9.892475E+0002	-1.258130E+0002	 7.277255E-0001
 3.863706E+0000	 2.500002E+0001	-9.814272E+0002	-1.258500E+0002	 7.278581E-0001
 3.873715E+0000	 2.500002E+0001	-9.736071E+0002	-1.258850E+0002	 7.277503E-0001
 3.883725E+0000	 2.500002E+0001	-9.657871E+0002	-1.259600E+0002	 7.275574E-0001
 3.893734E+0000	 2.500002E+0001	-9.579668E+0002	-1.259890E+0002	 7.275677E-0001
 3.903744E+0000	 2.500002E+0001	-9.501467E+0002	-1.260280E+0002	 7.274181E-0001
 3.913754E+0000	 2.500002E+0001	-9.423267E+0002	-1.260720E+0002	 7.275026E-0001
 3.923763E+0000	 2.500002E+0001	-9.345064E+0002	-1.261340E+0002	 7.272930E-0001
 3.933773E+0000	 2.500002E+0001	-9.266863E+0002	-1.261580E+0002	 7.271373E-0001
 3.943782E+0000	 2.500002E+0001	-9.188663E+0002	-1.262040E+0002	 7.272540E-0001
 3.953792E+0000	 2.500002E+0001	-9.110460E+0002	-1.262360E+0002	 7.270486E-0001
 3.963802E+0000	 2.500002E+0001	-9.032259E+0002	-1.262700E+0002	 7.268377E-0001
 3.973811E+0000	 2.500002E+0001	-8.954057E+0002	-1.263310E+0002	 7.268171E-0001
 3.983821E+0000	 2.500002E+0001	-8.875856E+0002	-1.263460E+0002	 7.267671E-0001
 3.993830E+0000	 2.500002E+0001	-8.797655E+0002	-1.263920E+0002	 7.267458E-0001
 4.003840E+0000	 2.500002E+0001	-8.719453E+0002	-1.264280E+0002	 7.265416E-0001
 4.013850E+0000	 2.500002E+0001	-8.641252E+0002	-1.264580E+0002	 7.264008E-0001
 4.023859E+0000	 2.500002E+0001	-8.563051E+0002	-1.265100E+0002	 7.263751E-0001
 4.033869E+0000	 2.500002E+0001	-8.484849E+0002	-1.265380E+0002	 7.260584E-0001
 4.043878E+0000	 2.500002E+0001	-8.406648E+0002	-1.265700E+0002	 7.259883E-0001
 4.053888E+0000	 2.500002E+0001	-8.328447E+0002	-1.266150E+0002	 7.260902E-0001
 4.063898E+0000	 2.500002E+0001	-8.250245E+0002	-1.266530E+0002	 7.259915E-0001
 4.073907E+0000	 2.500002E+0001	-8.172044E+0002	-1.266800E+0002	 7.258801E-0001
 4.083917E+0000	 2.500002E+0001	-8.093843E+0002	-1.267320E+0002	 7.258736E-0001
 4.093926E+0000	 2.500002E+0001	-8.015641E+0002	-1.267770E+0002	 7.255421E-0001
 4.103936E+0000	 2.500002E+0001	-7.937440E+0002	-1.268000E+0002	 7.255008E-0001
 4.113946E+0000	 2.500002E+0001	-7.859239E+0002	-1.268180E+0002	 7.254835E-0001
 4.123955E+0000	 2.500002E+0001	-7.781037E+0002	-1.268720E+0002	 7.254435E-0001
 4.133965E+0000	 2.500002E+0001	-7.702836E+0002	-1.269080E+0002	 7.255302E-0001
 4.143974E+0000	 2.500002E+0001	-7.624635E+0002	-1.269370E+0002	 7.252897E-0001
 4.153984E+0000	 2.500002E+0001	-7.546433E+0002	-1.269810E+0002	 7.252056E-0001
 4.163994E+0000	 2.500002E+0001	-7.468232E+0002	-1.270100E+0002	 7.249540E-0001
 4.174003E+0000	 2.500002E+0001	-7.390029E+0002	-1.270380E+0002	 7.250454E-0001
 4.184013E+0000	 2.500002E+0001	-7.311829E+0002	-1.270780E+0002	 7.250743E-0001
 4.194022E+0000	 2.500002E+0001	-7.233628E+0002	-1.271140E+0002	 7.249199E-0001
 4.204032E+0000	 2.500002E+0001	-7.155425E+0002	-1.271380E+0002	 7.248483E-0001
 4.214042E+0000	 2.500002E+0001	-7.077225E+0002	-1.271680E+0002	 7.246753E-0001
 4.224051E+0000	 2.500002E+0001	-6.999024E+0002	-1.272070E+0002	 7.245590E-0001
 4.234061E+0000	 2.500002E+0001	-6.920821E+0002	-1.272370E+0002	 7.244221E-0001
 4.244070E+0000	 2.500002E+0001	-6.842621E+0002	-1.272590E+0002	 7.243685E-0001
 4.254080E+0000	 2.500002E+0001	-6.764420E+0002	-1.272950E+0002	 7.244701E-0001
 4.264090E+0000	 2.500002E+0001	-6.686217E+0002	-1.273230E+0002	 7.243516E-0001
 4.274099E+0000	 2.500002E+0001	-6.608017E+0002	-1.273550E+0002	 7.243103E-0001
 4.284109E+0000	 2.500002E+0001	-6.529816E+0002	-1.273900E+0002	 7.243173E-0001
 4.294118E+0000	 2.500002E+0001	-6.451613E+0002	-1.274100E+0002	 7.243857E-0001
 4.304128E+0000	 2.500002E+0001	-6.373412E+0002	-1.274430E+0002	 7.241728E-0001
 4.314138E+0000	 2.500002E+0001	-6.295212E+0002	-1.274550E+0002	 7.240985E-0001
 4.324147E+0000	 2.500002E+0001	-6.217009E+0002	-1.274910E+0002	 7.240035E-0001
 4.334157E+0000	 2.500002E+0001	-6.138808E+0002	-1.275130E+0002	 7.240556E-0001
 4.344166E+0000	 2.500002E+0001	-6.060608E+0002	-1.275390E+0002	 7.237538E-0001
 4.354176E+0000	 2.500002E+0001	-5.982405E+0002	-1.275760E+0002	 7.238635E-0001
 4.364186E+0000	 2.500002E+0001	-5.904204E+0002	-1.276220E+0002	 7.236077E-0001
 4.374195E+0000	 2.500002E+0001	-5.826002E+0002	-1.276370E+0002	 7.235854E-0001
 4.384205E+0000	 2.500002E+0001	-5.747801E+0002	-1.276620E+0002	 7.233718E-0001
 4.394214E+0000	 2.500002E+0001	-5.669600E+0002	-1.276680E+0002	 7.233880E-0001
 4.404224E+0000	 2.500002E+0001	-5.591398E+0002	-1.277140E+0002	 7.231295E-0001
 4.414234E+0000	 2.500002E+0001	-5.513197E+0002	-1.277330E+0002	 7.231446E-0001
 4.424243E+0000	 2.500002E+0001	-5.434996E+0002	-1.277470E+0002	 7.232886E-0001
 4.434253E+0000	 2.500002E+0001	-5.356794E+0002	-1.277910E+0002	 7.231069E-0001
 4.444262E+0000	 2.500002E+0001	-5.278593E+0002	-1.278040E+0002	 7.230925E-0001
 4.454272E+0000	 2.500002E+0001	-5.200392E+0002	-1.278330E+0002	 7.232026E-0001
 4.464282E+0000	 2.500002E+0001	-5.122190E+0002	-1.278590E+0002	 7.229752E-0001
 4.474291E+0000	 2.500002E+0001	-5.043989E+0002	-1.279010E+0002	 7.229407E-0001
 4.484301E+0000	 2.500002E+0001	-4.965788E+0002	-1.279060E+0002	 7.227173E-0001
 4.494310E+0000	 2.500002E+0001	-4.887586E+0002	-1.279240E+0002	 7.228791E-0001
 4.504320E+0000	 2.500002E+0001	-4.809385E+0002	-1.279560E+0002	 7.225675E-0001
 4.514330E+0000	 2.500002E+0001	-4.731184E+0002	-1.279800E+0002	 7.227044E-0001
 4.524339E+0000	 2.500002E+0001	-4.652982E+0002	-1.280070E+0002	 7.226178E-0001
 4.534349E+0000	 2.500002E+0001	-4.574781E+0002	-1.280340E+0002	 7.224515E-0001
 4.544358E+0000	 2.500002E+0001	-4.496580E+0002	-1.280590E+0002	 7.224842E-0001
 4.554368E+0000	 2.500002E+0001	-4.418378E+0002	-1.280740E+0002	 7.224954E-0001
 4.564378E+0000	 2.500002E+0001	-4.340177E+0002	-1.280900E+0002	 7.223495E-0001
 4.574387E+0000	 2.500002E+0001	-4.261976E+0002	-1.281350E+0002	 7.223352E-0001
 4.584397E+0000	 2.500002E+0001	-4.183774E+0002	-1.281270E+0002	 7.222066E-0001
 4.594406E+0000	 2.500002E+0001	-4.105573E+0002	-1.281700E+0002	 7.222051E-0001
 4.604416E+0000	 2.500002E+0001	-4.027371E+0002	-1.281700E+0002	 7.219141E-0001
 4.614426E+0000	 2.500002E+0001	-3.949170E+0002	-1.281970E+0002	 7.221456E-0001
 4.624435E+0000	 2.500002E+0001	-3.870969E+0002	-1.282180E+0002	 7.219794E-0001
 4.634445E+0000	 2.500002E+0001	-3.792767E+0002	-1.282360E+0002	 7.218678E-0001
 4.644454E+0000	 2.500002E+0001	-3.714566E+0002	-1.282670E+0002	 7.217682E-0001
 4.654464E+0000	 2.500002E+0001	-3.636365E+0002	-1.282860E+0002	 7.217804E-0001
 4.664474E+0000	 2.500002E+0001	-3.558162E+0002	-1.282990E+0002	 7.218541E-0001
 4.674483E+0000	 2.500002E+0001	-3.479962E+0002	-1.283100E+0002	 7.217099E-0001
 4.684493E+0000	 2.500002E+0001	-3.401761E+0002	-1.283310E+0002	 7.214632E-0001
 4.694502E+0000	 2.500002E+0001	-3.323558E+0002	-1.283630E+0002	 7.214156E-0001
 4.704512E+0000	 2.500002E+0001	-3.245358E+0002	-1.283790E+0002	 7.213635E-0001
 4.714522E+0000	 2.500002E+0001	-3.167157E+0002	-1.283990E+0002	 7.213743E-0001
 4.724531E+0000	 2.500002E+0001	-3.088954E+0002	-1.283980E+0002	 7.212430E-0001
 4.734541E+0000	 2.500002E+0001	-3.010754E+0002	-1.284150E+0002	 7.214148E-0001
 4.744550E+0000	 2.500002E+0001	-2.932553E+0002	-1.284460E+0002	 7.212044E-0001
 4.754560E+0000	 2.500002E+0001	-2.854350E+0002	-1.284550E+0002	 7.212870E-0001
 4.764570E+0000	 2.500002E+0001	-2.776150E+0002	-1.284670E+0002	 7.212666E-0001
 4.774579E+0000	 2.500002E+0001	-2.697949E+0002	-1.284930E+0002	 7.210096E-0001
 4.784589E+0000	 2.500002E+0001	-2.619746E+0002	-1.285120E+0002	 7.211438E-0001
 4.794598E+0000	 2.500002E+0001	-2.541545E+0002	-1.285110E+0002	 7.208596E-0001
 4.804608E+0000	 2.500002E+0001	-2.463343E+0002	-1.285300E+0002	 7.209240E-0001
 4.814618E+0000	 2.500002E+0001	-2.385142E+0002	-1.285480E+0002	 7.208545E-0001
 4.824627E+0000	 2.500002E+0001	-2.306941E+0002	-1.285670E+0002	 7.207670E-0001
 4.834637E+0000	 2.500002E+0001	-2.228739E+0002	-1.285960E+0002	 7.208421E-0001
 4.844646E+0000	 2.500002E+0001	-2.150538E+0002	-1.285840E+0002	 7.206492E-0001
 4.854656E+0000	 2.500002E+0001	-2.072337E+0002	-1.286140E+0002	 7.206058E-0001
 4.864666E+0000	 2.500002E+0001	-1.994135E+0002	-1.286040E+0002	 7.207532E-0001
 4.874675E+0000	 2.500002E+0001	-1.915934E+0002	-1.286460E+0002	 7.205031E-0001
 4.884685E+0000	 2.500002E+0001	-1.837733E+0002	-1.286610E+0002	 7.206538E-0001
 4.894694E+0000	 2.500002E+0001	-1.759531E+0002	-1.286640E+0002	 7.205855E-0001
 4.904704E+0000	 2.500002E+0001	-1.681330E+0002	-1.286760E+0002	 7.205222E-0001
 4.914714E+0000	 2.500002E+0001	-1.603129E+0002	-1.286950E+0002	 7.203501E-0001
 4.924723E+0000	 2.500002E+0001	-1.524927E+0002	-1.286950E+0002	 7.204261E-0001
 4.934733E+0000	 2.500002E+0001	-1.446726E+0002	-1.287110E+0002	 7.205418E-0001
 4.944742E+0000	 2.500002E+0001	-1.368525E+0002	-1.287200E+0002	 7.204314E-0001
 4.954752E+0000	 2.500002E+0001	-1.290323E+0002	-1.287240E+0002	 7.201777E-0001
 4.964762E+0000	 2.500002E+0001	-1.212122E+0002	-1.287180E+0002	 7.203404E-0001
 4.974771E+0000	 2.500002E+0001	-1.133921E+0002	-1.287450E+0002	 7.204171E-0001
 4.984781E+0000	 2.500002E+0001	-1.055718E+0002	-1.287620E+0002	 7.202591E-0001
 4.994790E+0000	 2.500002E+0001	-9.775180E+0001	-1.287580E+0002	 7.202327E-0001
 5.004800E+0000	 2.500002E+0001	-8.993156E+0001	-1.287630E+0002	 7.202470E-0001
 5.014810E+0000	 2.500002E+0001	-8.211148E+0001	-1.287940E+0002	 7.201500E-0001
 5.024819E+0000	 2.500002E+0001	-7.429140E+0001	-1.287790E+0002	 7.201924E-0001
 5.034829E+0000	 2.500002E+0001	-6.647116E+0001	-1.287910E+0002	 7.201416E-0001
 5.044838E+0000	 2.500002E+0001	-5.865108E+0001	-1.288120E+0002	 7.199920E-0001
 5.054848E+0000	 2.500002E+0001	-5.083099E+0001	-1.288100E+0002	 7.201795E-0001
 5.064858E+0000	 2.500002E+0001	-4.301076E+0001	-1.288190E+0002	 7.198992E-0001
 5.074867E+0000	 2.500002E+0001	-3.519067E+0001	-1.288190E+0002	 7.199278E-0001
 5.084877E+0000	 2.500002E+0001	-2.737059E+0001	-1.288360E+0002	 7.201664E-0001
 5.094886E+0000	 2.500002E+0001	-1.955035E+0001	-1.288410E+0002	 7.201108E-0001
 5.104896E+0000	 2.500002E+0001	-1.173026E+0001	-1.288310E+0002	 7.198810E-0001
 5.114906E+0000	 2.500002E+0001	-3.910186E+0000	-1.288550E+0002	 7.198576E-0001
 5.124915E+0000	 2.500002E+0001	 3.910051E+0000	-1.288730E+0002	 7.199293E-0001
 5.134925E+0000	 2.500002E+0001	 1.173013E+0001	-1.288500E+0002	 7.199814E-0001
 5.144934E+0000	 2.500002E+0001	 1.955022E+0001	-1.288590E+0002	 7.199974E-0001
 5.154944E+0000	 2.500002E+0001	 2.737046E+0001	-1.288590E+0002	 7.199641E-0001
 5.164954E+0000	 2.500002E+0001	 3.519054E+0001	-1.288740E+0002	 7.200892E-0001
 5.174963E+0000	 2.500002E+0001	 4.301062E+0001	-1.288800E+0002	 7.200110E-0001
 5.184973E+0000	 2.500002E+0001	 5.083086E+0001	-1.288810E+0002	 7.198824E-0001
 5.194982E+0000	 2.500002E+0001	 5.865094E+0001	-1.288760E+0002	 7.198837E-0001
 5.204992E+0000	 2.500002E+0001	 6.647118E+0001	-1.288820E+0002	 7.199029E-0001
 5.215002E+0000	 2.500002E+0001	 7.429126E+0001	-1.288870E+0002	 7.199550E-0001
 5.225011E+0000	 2.500002E+0001	 8.211135E+0001	-1.288880E+0002	 7.198062E-0001
 5.235021E+0000	 2.500002E+0001	 8.993158E+0001	-1.288960E+0002	 7.201227E-0001
 5.245030E+0000	 2.500002E+0001	 9.775167E+0001	-1.288940E+0002	 7.198823E-0001
 5.255040E+0000	 2.500002E+0001	 1.055717E+0002	-1.289020E+0002	 7.199278E-0001
 5.265050E+0000	 2.500002E+0001	 1.133919E+0002	-1.289050E+0002	 7.197865E-0001
 5.275059E+0000	 2.500002E+0001	 1.212120E+0002	-1.289080E+0002	 7.198375E-0001
 5.285069E+0000	 2.500002E+0001	 1.290322E+0002	-1.289130E+0002	 7.197738E-0001
 5.295078E+0000	 2.500002E+0001	 1.368524E+0002	-1.289090E+0002	 7.197816E-0001
 5.305088E+0000	 2.500002E+0001	 1.446725E+0002	-1.289130E+0002	 7.196153E-0001
 5.315098E+0000	 2.500002E+0001	 1.524926E+0002	-1.289180E+0002	 7.197367E-0001
 5.325107E+0000	 2.500002E+0001	 1.603128E+0002	-1.289060E+0002	 7.196507E-0001
 5.335117E+0000	 2.500002E+0001	 1.681329E+0002	-1.289100E+0002	 7.198827E-0001
 5.345126E+0000	 2.500002E+0001	 1.759530E+0002	-1.289070E+0002	 7.199396E-0001
 5.355136E+0000	 2.500002E+0001	 1.837732E+0002	-1.288910E+0002	 7.199035E-0001
 5.365146E+0000	 2.500002E+0001	 1.915933E+0002	-1.289100E+0002	 7.198500E-0001
 5.375155E+0000	 2.500002E+0001	 1.994134E+0002	-1.288900E+0002	 7.196986E-0001
 5.385165E+0000	 2.500002E+0001	 2.072336E+0002	-1.288930E+0002	 7.198714E-0001
 5.395174E+0000	 2.500002E+0001	 2.150537E+0002	-1.288900E+0002	 7.197960E-0001
 5.405184E+0000	 2.500002E+0001	 2.228738E+0002	-1.288820E+0002	 7.197122E-0001
 5.415194E+0000	 2.500002E+0001	 2.306940E+0002	-1.288790E+0002	 7.196248E-0001
 5.425203E+0000	 2.500002E+0001	 2.385141E+0002	-1.288780E+0002	 7.198350E-0001
 5.435213E+0000	 2.500002E+0001	 2.463343E+0002	-1.289010E+0002	 7.196556E-0001
 5.445222E+0000	 2.500002E+0001	 2.541544E+0002	-1.288870E+0002	 7.199047E-0001
 5.455232E+0000	 2.500002E+0001	 2.619745E+0002	-1.288820E+0002	 7.196206E-0001
 5.465242E+0000	 2.500002E+0001	 2.697947E+0002	-1.288910E+0002	 7.198542E-0001
 5.475251E+0000	 2.500002E+0001	 2.776148E+0002	-1.288810E+0002	 7.195505E-0001
 5.485261E+0000	 2.500002E+0001	 2.854349E+0002	-1.288760E+0002	 7.196123E-0001
 5.495270E+0000	 2.500002E+0001	 2.932551E+0002	-1.288690E+0002	 7.197789E-0001
 5.505280E+0000	 2.500002E+0001	 3.010752E+0002	-1.288380E+0002	 7.200202E-0001
 5.515290E+0000	 2.500002E+0001	 3.088953E+0002	-1.288470E+0002	 7.198917E-0001
 5.525299E+0000	 2.500002E+0001	 3.167155E+0002	-1.288410E+0002	 7.197962E-0001
 5.535309E+0000	 2.500002E+0001	 3.245356E+0002	-1.288300E+0002	 7.196643E-0001
 5.545318E+0000	 2.500002E+0001	 3.323557E+0002	-1.288320E+0002	 7.198089E-0001
 5.555328E+0000	 2.500002E+0001	 3.401759E+0002	-1.288130E+0002	 7.198348E-0001
 5.565338E+0000	 2.500002E+0001	 3.479960E+0002	-1.288170E+0002	 7.202152E-0001
 5.575347E+0000	 2.500002E+0001	 3.558161E+0002	-1.288110E+0002	 7.199220E-0001
 5.585357E+0000	 2.500002E+0001	 3.636363E+0002	-1.287910E+0002	 7.199111E-0001
 5.595366E+0000	 2.500002E+0001	 3.714564E+0002	-1.287910E+0002	 7.198368E-0001
 5.605376E+0000	 2.500002E+0001	 3.792765E+0002	-1.287740E+0002	 7.200826E-0001
 5.615386E+0000	 2.500002E+0001	 3.870968E+0002	-1.287740E+0002	 7.200382E-0001
 5.625395E+0000	 2.500002E+0001	 3.949168E+0002	-1.287630E+0002	 7.200966E-0001
 5.635405E+0000	 2.500002E+0001	 4.027371E+0002	-1.287630E+0002	 7.199587E-0001
 5.645414E+0000	 2.500002E+0001	 4.105572E+0002	-1.287520E+0002	 7.199973E-0001
 5.655424E+0000	 2.500002E+0001	 4.183772E+0002	-1.287240E+0002	 7.201042E-0001
 5.665434E+0000	 2.500002E+0001	 4.261975E+0002	-1.287380E+0002	 7.202349E-0001
 5.675443E+0000	 2.500002E+0001	 4.340176E+0002	-1.287170E+0002	 7.204255E-0001
 5.685453E+0000	 2.500002E+0001	 4.418376E+0002	-1.287100E+0002	 7.204358E-0001
 5.695462E+0000	 2.500002E+0001	 4.496579E+0002	-1.286850E+0002	 7.203308E-0001
 5.705472E+0000	 2.500002E+0001	 4.574780E+0002	-1.286910E+0002	 7.202093E-0001
 5.715482E+0000	 2.500002E+0001	 4.652980E+0002	-1.286640E+0002	 7.203588E-0001
 5.725491E+0000	 2.500002E+0001	 4.731183E+0002	-1.286510E+0002	 7.204929E-0001
 5.735501E+0000	 2.500002E+0001	 4.809384E+0002	-1.286500E+0002	 7.203982E-0001
 5.745510E+0000	 2.500002E+0001	 4.887585E+0002	-1.286300E+0002	 7.203791E-0001
 5.755520E+0000	 2.500002E+0001	 4.965787E+0002	-1.286010E+0002	 7.202486E-0001
 5.765530E+0000	 2.500002E+0001	 5.043988E+0002	-1.286060E+0002	 7.204156E-0001
 5.775539E+0000	 2.500002E+0001	 5.122189E+0002	-1.285990E+0002	 7.206094E-0001
 5.785549E+0000	 2.500002E+0001	 5.200391E+0002	-1.285810E+0002	 7.205640E-0001
 5.795558E+0000	 2.500002E+0001	 5.278592E+0002	-1.285690E+0002	 7.205784E-0001
 5.805568E+0000	 2.500002E+0001	 5.356793E+0002	-1.285500E+0002	 7.208504E-0001
 5.815578E+0000	 2.500002E+0001	 5.434995E+0002	-1.285480E+0002	 7.210339E-0001
 5.825587E+0000	 2.500002E+0001	 5.513196E+0002	-1.285390E+0002	 7.206696E-0001
 5.835597E+0000	 2.500002E+0001	 5.591398E+0002	-1.285140E+0002	 7.206124E-0001
 5.845606E+0000	 2.500002E+0001	 5.669599E+0002	-1.284980E+0002	 7.208515E-0001
 5.855616E+0000	 2.500002E+0001	 5.747800E+0002	-1.284880E+0002	 7.207952E-0001
 5.865626E+0000	 2.500002E+0001	 5.826002E+0002	-1.284650E+0002	 7.209248E-0001
 5.875635E+0000	 2.500002E+0001	 5.904203E+0002	-1.284500E+0002	 7.209994E-0001
 5.885645E+0000	 2.500002E+0001	 5.982404E+0002	-1.284400E+0002	 7.211140E-0001
 5.895654E+0000	 2.500002E+0001	 6.060606E+0002	-1.284250E+0002	 7.210545E-0001
 5.905664E+0000	 2.500002E+0001	 6.138807E+0002	-1.283990E+0002	 7.211699E-0001
 5.915674E+0000	 2.500002E+0001	 6.217008E+0002	-1.283860E+0002	 7.209809E-0001
 5.925683E+0000	 2.500002E+0001	 6.295210E+0002	-1.283620E+0002	 7.212041E-0001
 5.935693E+0000	 2.500002E+0001	 6.373411E+0002	-1.283440E+0002	 7.211254E-0001
 5.945702E+0000	 2.500002E+0001	 6.451612E+0002	-1.283390E+0002	 7.213408E-0001
 5.955712E+0000	 2.500002E+0001	 6.529814E+0002	-1.283110E+0002	 7.213017E-0001
 5.965722E+0000	 2.500002E+0001	 6.608015E+0002	-1.283010E+0002	 7.213972E-0001
 5.975731E+0000	 2.500002E+0001	 6.686216E+0002	-1.282780E+0002	 7.214917E-0001
 5.985741E+0000	 2.500002E+0001	 6.764418E+0002	-1.282600E+0002	 7.216128E-0001
 5.995750E+0000	 2.500002E+0001	 6.842619E+0002	-1.282270E+0002	 7.216357E-0001
 6.005760E+0000	 2.500002E+0001	 6.920820E+0002	-1.282060E+0002	 7.216196E-0001
 6.015770E+0000	 2.500002E+0001	 6.999022E+0002	-1.282030E+0002	 7.218616E-0001
 6.025779E+0000	 2.500002E+0001	 7.077223E+0002	-1.281750E+0002	 7.215029E-0001
 6.035789E+0000	 2.500002E+0001	 7.155424E+0002	-1.281560E+0002	 7.217162E-0001
 6.045798E+0000	 2.500002E+0001	 7.233626E+0002	-1.281270E+0002	 7.218820E-0001
 6.055808E+0000	 2.500002E+0001	 7.311827E+0002	-1.281110E+0002	 7.218197E-0001
 6.065818E+0000	 2.500002E+0001	 7.390030E+0002	-1.280830E+0002	 7.219098E-0001
 6.075827E+0000	 2.500002E+0001	 7.468231E+0002	-1.280580E+0002	 7.217930E-0001
 6.085837E+0000	 2.500002E+0001	 7.546431E+0002	-1.280530E+0002	 7.220021E-0001
 6.095846E+0000	 2.500002E+0001	 7.624634E+0002	-1.280150E+0002	 7.221071E-0001
 6.105856E+0000	 2.500002E+0001	 7.702835E+0002	-1.280020E+0002	 7.221339E-0001
 6.115866E+0000	 2.500002E+0001	 7.781035E+0002	-1.279700E+0002	 7.221450E-0001
 6.125875E+0000	 2.500002E+0001	 7.859238E+0002	-1.279410E+0002	 7.221485E-0001
 6.135885E+0000	 2.500002E+0001	 7.937439E+0002	-1.279260E+0002	 7.222913E-0001
 6.145894E+0000	 2.500002E+0001	 8.015639E+0002	-1.279190E+0002	 7.222444E-0001
 6.155904E+0000	 2.500002E+0001	 8.093842E+0002	-1.278740E+0002	 7.222558E-0001
 6.165914E+0000	 2.500002E+0001	 8.172043E+0002	-1.278460E+0002	 7.223570E-0001
 6.175923E+0000	 2.500002E+0001	 8.250243E+0002	-1.278220E+0002	 7.224486E-0001
 6.185933E+0000	 2.500002E+0001	 8.328446E+0002	-1.278050E+0002	 7.226614E-0001
 6.195942E+0000	 2.500002E+0001	 8.406647E+0002	-1.277870E+0002	 7.227187E-0001
 6.205952E+0000	 2.500002E+0001	 8.484848E+0002	-1.277570E+0002	 7.226293E-0001
 6.215962E+0000	 2.500002E+0001	 8.563050E+0002	-1.277340E+0002	 7.228625E-0001
 6.225971E+0000	 2.500002E+0001	 8.641251E+0002	-1.277140E+0002	 7.227903E-0001
 6.235981E+0000	 2.500002E+0001	 8.719452E+0002	-1.276690E+0002	 7.227986E-0001
 6.245990E+0000	 2.500002E+0001	 8.797654E+0002	-1.276580E+0002	 7.229742E-0001
 6.256000E+0000	 2.500002E+0001	 8.875855E+0002	-1.276250E+0002	 7.230715E-0001
 6.266010E+0000	 2.500002E+0001	 8.954057E+0002	-1.276230E+0002	 7.230819E-0001
 6.276019E+0000	 2.500002E+0001	 9.032258E+0002	-1.276040E+0002	 7.230929E-0001
 6.286029E+0000	 2.500002E+0001	 9.110459E+0002	-1.275620E+0002	 7.233593E-0001
 6.296038E+0000	 2.500002E+0001	 9.188661E+0002	-1.275260E+0002	 7.233632E-0001
 6.306048E+0000	 2.500002E+0001	 9.266862E+0002	-1.275050E+0002	 7.234570E-0001
 6.316058E+0000	 2.500002E+0001	 9.345063E+0002	-1.274550E+0002	 7.234902E-0001
 6.326067E+0000	 2.500002E+0001	 9.423265E+0002	-1.274380E+0002	 7.235072E-0001
 6.336077E+0000	 2.500002E+0001	 9.501466E+0002	-1.274130E+0002	 7.235194E-0001
 6.346086E+0000	 2.500002E+0001	 9.579667E+0002	-1.273790E+0002	 7.234914E-0001
 6.356096E+0000	 2.500002E+0001	 9.657869E+0002	-1.273640E+0002	 7.238056E-0001
 6.366106E+0000	 2.500002E+0001	 9.736070E+0002	-1.273130E+0002	 7.238542E-0001
 6.376115E+0000	 2.500002E+0001	 9.814271E+0002	-1.272890E+0002	 7.237949E-0001
 6.386125E+0000	 2.500002E+0001	 9.892473E+0002	-1.272600E+0002	 7.238585E-0001
 6.396134E+0000	 2.500002E+0001	 9.970674E+0002	-1.272160E+0002	 7.238440E-0001
 6.406144E+0000	 2.500002E+0001	 1.004887E+0003	-1.271950E+0002	 7.241716E-0001
 6.416154E+0000	 2.500002E+0001	 1.012707E+0003	-1.271680E+0002	 7.242007E-0001
 6.426163E+0000	 2.500002E+0001	 1.020527E+0003	-1.271380E+0002	 7.241552E-0001
 6.436173E+0000	 2.500002E+0001	 1.028348E+0003	-1.271030E+0002	 7.243276E-0001
 6.446182E+0000	 2.500002E+0001	 1.036168E+0003	-1.270660E+0002	 7.243384E-0001
 6.456192E+0000	 2.500002E+0001	 1.043988E+0003	-1.270250E+0002	 7.243197E-0001
 6.466202E+0000	 2.500002E+0001	 1.051808E+0003	-1.270030E+0002	 7.245175E-0001
 6.476211E+0000	 2.500002E+0001	 1.059629E+0003	-1.269830E+0002	 7.243855E-0001
 6.486221E+0000	 2.500002E+0001	 1.067449E+0003	-1.269490E+0002	 7.247059E-0001
 6.496230E+0000	 2.500002E+0001	 1.075269E+0003	-1.269170E+0002	 7.246285E-0001
 6.506240E+0000	 2.500002E+0001	 1.083089E+0003	-1.268610E+0002	 7.246661E-0001
 6.516250E+0000	 2.500002E+0001	 1.090909E+0003	-1.268380E+0002	 7.247679E-0001
 6.526259E+0000	 2.500002E+0001	 1.098729E+0003	-1.268050E+0002	 7.248394E-0001
 6.536269E+0000	 2.500002E+0001	 1.106549E+0003	-1.267710E+0002	 7.251113E-0001
 6.546278E+0000	 2.500002E+0001	 1.114369E+0003	-1.267420E+0002	 7.250270E-0001
 6.556288E+0000	 2.500002E+0001	 1.122190E+0003	-1.266990E+0002	 7.252213E-0001
 6.566298E+0000	 2.500002E+0001	 1.130010E+0003	-1.266710E+0002	 7.253163E-0001
 6.576307E+0000	 2.500002E+0001	 1.137830E+0003	-1.266330E+0002	 7.251795E-0001
 6.586317E+0000	 2.500002E+0001	 1.145650E+0003	-1.266100E+0002	 7.254660E-0001
 6.596326E+0000	 2.500002E+0001	 1.153470E+0003	-1.265420E+0002	 7.253774E-0001
 6.606336E+0000	 2.500002E+0001	 1.161290E+0003	-1.265310E+0002	 7.257252E-0001
 6.616346E+0000	 2.500002E+0001	 1.169110E+0003	-1.264930E+0002	 7.258878E-0001
 6.626355E+0000	 2.500002E+0001	 1.176931E+0003	-1.264570E+0002	 7.258006E-0001
 6.636365E+0000	 2.500002E+0001	 1.184751E+0003	-1.264160E+0002	 7.259197E-0001
 6.646374E+0000	 2.500002E+0001	 1.192571E+0003	-1.263740E+0002	 7.260498E-0001
 6.656384E+0000	 2.500002E+0001	 1.200391E+0003	-1.263330E+0002	 7.261133E-0001
 6.666394E+0000	 2.500002E+0001	 1.208211E+0003	-1.262930E+0002	 7.260977E-0001
 6.676403E+0000	 2.500002E+0001	 1.216031E+0003	-1.262620E+0002	 7.261589E-0001
 6.686413E+0000	 2.500002E+0001	 1.223851E+0003	-1.262030E+0002	 7.261699E-0001
 6.696422E+0000	 2.500002E+0001	 1.231672E+0003	-1.261940E+0002	 7.261140E-0001
 6.706432E+0000	 2.500002E+0001	 1.239492E+0003	-1.261260E+0002	 7.263841E-0001
 6.716442E+0000	 2.500002E+0001	 1.247312E+0003	-1.260940E+0002	 7.264265E-0001
 6.726451E+0000	 2.500002E+0001	 1.255132E+0003	-1.260510E+0002	 7.265749E-0001
 6.736461E+0000	 2.500002E+0001	 1.262952E+0003	-1.260140E+0002	 7.264641E-0001
 6.746470E+0000	 2.500002E+0001	 1.270772E+0003	-1.259740E+0002	 7.266641E-0001
 6.756480E+0000	 2.500002E+0001	 1.278592E+0003	-1.259480E+0002	 7.268268E-0001
 6.766490E+0000	 2.500002E+0001	 1.286412E+0003	-1.259110E+0002	 7.268595E-0001
 6.776499E+0000	 2.500002E+0001	 1.294233E+0003	-1.258650E+0002	 7.269809E-0001
 6.786509E+0000	 2.500002E+0001	 1.302053E+0003	-1.258380E+0002	 7.270526E-0001
 6.796518E+0000	 2.500002E+0001	 1.309873E+0003	-1.258100E+0002	 7.271557E-0001
 6.806528E+0000	 2.500002E+0001	 1.317693E+0003	-1.257370E+0002	 7.272846E-0001
 6.816538E+0000	 2.500002E+0001	 1.325513E+0003	-1.256950E+0002	 7.272993E-0001
 6.826547E+0000	 2.500002E+0001	 1.333333E+0003	-1.256580E+0002	 7.275365E-0001
 6.836557E+0000	 2.500002E+0001	 1.341153E+0003	-1.256060E+0002	 7.273549E-0001
 6.846566E+0000	 2.500002E+0001	 1.348974E+0003	-1.255850E+0002	 7.274252E-0001
 6.856576E+0000	 2.500002E+0001	 1.356794E+0003	-1.255120E+0002	 7.277248E-0001
 6.866586E+0000	 2.500002E+0001	 1.364614E+0003	-1.254770E+0002	 7.278281E-0001
 6.876595E+0000	 2.500002E+0001	 1.372434E+0003	-1.254370E+0002	 7.277870E-0001
 6.886605E+0000	 2.500002E+0001	 1.380254E+0003	-1.254040E+0002	 7.279101E-0001
 6.896614E+0000	 2.500002E+0001	 1.388074E+0003	-1.253540E+0002	 7.280347E-0001
 6.906624E+0000	 2.500002E+0001	 1.395894E+0003	-1.253120E+0002	 7.281318E-0001
 6.916634E+0000	 2.500002E+0001	 1.403715E+0003	-1.252690E+0002	 7.282279E-0001
 6.926643E+0000	 2.500002E+0001	 1.411535E+0003	-1.252290E+0002	 7.284363E-0001
 6.936653E+0000	 2.500002E+0001	 1.419355E+0003	-1.251720E+0002	 7.284487E-0001
 6.946662E+0000	 2.500002E+0001	 1.427175E+0003	-1.251170E+0002	 7.284264E-0001
 6.956672E+0000	 2.500002E+0001	 1.434995E+0003	-1.250740E+0002	 7.286795E-0001
 6.966682E+0000	 2.500002E+0001	 1.442815E+0003	-1.250180E+0002	 7.286594E-0001
 6.976691E+0000	 2.500002E+0001	 1.450635E+0003	-1.249710E+0002	 7.287144E-0001
 6.986701E+0000	 2.500002E+0001	 1.458456E+0003	-1.249140E+0002	 7.288726E-0001
 6.996710E+0000	 2.500002E+0001	 1.466276E+0003	-1.248710E+0002	 7.288503E-0001
 7.006720E+0000	 2.500002E+0001	 1.474096E+0003	-1.248230E+0002	 7.289131E-0001
 7.016730E+0000	 2.500002E+0001	 1.481916E+0003	-1.247830E+0002	 7.289222E-0001
 7.026739E+0000	 2.500002E+0001	 1.489736E+0003	-1.247350E+0002	 7.290962E-0001
 7.036749E+0000	 2.500002E+0001	 1.497556E+0003	-1.246840E+0002	 7.291235E-0001
 7.046758E+0000	 2.500002E+0001	 1.505376E+0003	-1.246320E+0002	 7.292720E-0001
 7.056768E+0000	 2.500002E+0001	 1.513196E+0003	-1.245860E+0002	 7.294025E-0001
 7.066778E+0000	 2.500002E+0001	 1.521017E+0003	-1.245480E+0002	 7.294742E-0001
 7.076787E+0000	 2.500002E+0001	 1.528837E+0003	-1.245190E+0002	 7.294691E-0001
 7.086797E+0000	 2.500002E+0001	 1.536657E+0003	-1.244690E+0002	 7.295343E-0001
 7.096806E+0000	 2.500002E+0001	 1.544477E+0003	-1.243890E+0002	 7.294777E-0001
 7.106816E+0000	 2.500002E+0001	 1.552297E+0003	-1.243530E+0002	 7.296948E-0001
 7.116826E+0000	 2.500002E+0001	 1.560117E+0003	-1.242700E+0002	 7.297524E-0001
 7.126835E+0000	 2.500002E+0001	 1.567937E+0003	-1.242370E+0002	 7.301768E-0001
 7.136845E+0000	 2.500002E+0001	 1.575758E+0003	-1.241740E+0002	 7.301676E-0001
 7.146854E+0000	 2.500002E+0001	 1.583578E+0003	-1.241210E+0002	 7.303876E-0001
 7.156864E+0000	 2.500002E+0001	 1.591398E+0003	-1.240780E+0002	 7.304120E-0001
 7.166874E+0000	 2.500002E+0001	 1.599218E+0003	-1.240310E+0002	 7.303525E-0001
 7.176883E+0000	 2.500002E+0001	 1.607038E+0003	-1.239690E+0002	 7.304329E-0001
 7.186893E+0000	 2.500002E+0001	 1.614858E+0003	-1.239140E+0002	 7.305204E-0001
 7.196902E+0000	 2.500002E+0001	 1.622678E+0003	-1.238470E+0002	 7.307060E-0001
 7.206912E+0000	 2.500002E+0001	 1.630498E+0003	-1.238190E+0002	 7.308790E-0001
 7.216922E+0000	 2.500002E+0001	 1.638319E+0003	-1.237610E+0002	 7.307042E-0001
 7.226931E+0000	 2.500002E+0001	 1.646139E+0003	-1.236960E+0002	 7.311111E-0001
 7.236941E+0000	 2.500002E+0001	 1.653959E+0003	-1.236480E+0002	 7.310775E-0001
 7.246950E+0000	 2.500002E+0001	 1.661779E+0003	-1.235820E+0002	 7.312020E-0001
 7.256960E+0000	 2.500002E+0001	 1.669599E+0003	-1.235570E+0002	 7.311702E-0001
 7.266970E+0000	 2.500002E+0001	 1.677419E+0003	-1.234790E+0002	 7.314331E-0001
 7.276979E+0000	 2.500002E+0001	 1.685240E+0003	-1.234340E+0002	 7.313343E-0001
 7.286989E+0000	 2.500002E+0001	 1.693060E+0003	-1.233700E+0002	 7.316772E-0001
 7.296998E+0000	 2.500002E+0001	 1.700880E+0003	-1.233020E+0002	 7.315947E-0001
 7.307008E+0000	 2.500002E+0001	 1.708700E+0003	-1.232440E+0002	 7.317769E-0001
 7.317018E+0000	 2.500002E+0001	 1.716520E+0003	-1.231740E+0002	 7.321245E-0001
 7.327027E+0000	 2.500002E+0001	 1.724340E+0003	-1.231370E+0002	 7.318590E-0001
 7.337037E+0000	 2.500002E+0001	 1.732160E+0003	-1.230700E+0002	 7.321805E-0001
 7.347046E+0000	 2.500002E+0001	 1.739980E+0003	-1.230370E+0002	 7.323960E-0001
 7.357056E+0000	 2.500002E+0001	 1.747801E+0003	-1.229850E+0002	 7.324146E-0001
 7.367066E+0000	 2.500002E+0001	 1.755621E+0003	-1.229010E+0002	 7.323056E-0001
 7.377075E+0000	 2.500002E+0001	 1.763441E+0003	-1.228670E+0002	 7.325050E-0001
 7.387085E+0000	 2.500002E+0001	 1.771261E+0003	-1.227860E+0002	 7.325296E-0001
 7.397094E+0000	 2.500002E+0001	 1.779081E+0003	-1.226990E+0002	 7.326873E-0001
 7.407104E+0000	 2.500002E+0001	 1.786901E+0003	-1.226460E+0002	 7.328030E-0001
 7.417114E+0000	 2.500002E+0001	 1.794721E+0003	-1.226140E+0002	 7.327384E-0001
 7.427123E+0000	 2.500002E+0001	 1.802542E+0003	-1.225550E+0002	 7.329709E-0001
 7.437133E+0000	 2.500002E+0001	 1.810362E+0003	-1.225070E+0002	 7.329631E-0001
 7.447142E+0000	 2.500002E+0001	 1.818182E+0003	-1.224700E+0002	 7.332039E-0001
 7.457152E+0000	 2.500002E+0001	 1.826002E+0003	-1.224290E+0002	 7.329630E-0001
 7.467162E+0000	 2.500002E+0001	 1.833822E+0003	-1.223510E+0002	 7.329729E-0001
 7.477171E+0000	 2.500002E+0001	 1.841642E+0003	-1.222710E+0002	 7.331155E-0001
 7.487181E+0000	 2.500002E+0001	 1.849462E+0003	-1.222120E+0002	 7.331845E-0001
 7.497190E+0000	 2.500002E+0001	 1.857282E+0003	-1.221430E+0002	 7.334146E-0001
 7.507200E+0000	 2.500002E+0001	 1.865103E+0003	-1.220640E+0002	 7.333883E-0001
 7.517210E+0000	 2.500002E+0001	 1.872923E+0003	-1.219820E+0002	 7.335852E-0001
 7.527219E+0000	 2.500002E+0001	 1.880743E+0003	-1.219270E+0002	 7.335766E-0001
 7.537229E+0000	 2.500002E+0001	 1.888563E+0003	-1.218610E+0002	 7.336889E-0001
 7.547238E+0000	 2.500002E+0001	 1.896383E+0003	-1.217780E+0002	 7.339720E-0001
 7.557248E+0000	 2.500002E+0001	 1.904203E+0003	-1.217330E+0002	 7.341096E-0001
 7.567258E+0000	 2.500002E+0001	 1.912023E+0003	-1.216470E+0002	 7.339681E-0001
 7.577267E+0000	 2.500002E+0001	 1.919844E+0003	-1.215720E+0002	 7.341442E-0001
 7.587277E+0000	 2.500002E+0001	 1.927664E+0003	-1.215440E+0002	 7.339798E-0001
 7.597286E+0000	 2.500002E+0001	 1.935484E+0003	-1.214580E+0002	 7.342831E-0001
 7.607296E+0000	 2.500002E+0001	 1.943304E+0003	-1.214130E+0002	 7.342864E-0001
 7.617306E+0000	 2.500002E+0001	 1.951124E+0003	-1.213480E+0002	 7.343121E-0001
 7.627315E+0000	 2.500002E+0001	 1.958944E+0003	-1.212770E+0002	 7.343468E-0001
 7.637325E+0000	 2.500002E+0001	 1.966764E+0003	-1.212060E+0002	 7.343898E-0001
 7.647334E+0000	 2.500002E+0001	 1.974585E+0003	-1.211270E+0002	 7.344989E-0001
 7.657344E+0000	 2.500002E+0001	 1.982405E+0003	-1.210560E+0002	 7.345914E-0001
 7.667354E+0000	 2.500002E+0001	 1.990225E+0003	-1.210050E+0002	 7.345974E-0001
 7.677363E+0000	 2.500002E+0001	 1.998045E+0003	-1.209390E+0002	 7.347052E-0001
 7.687373E+0000	 2.500002E+0001	 2.005865E+0003	-1.208700E+0002	 7.348014E-0001
 7.697382E+0000	 2.500002E+0001	 2.013685E+0003	-1.207940E+0002	 7.349699E-0001
 7.707392E+0000	 2.500002E+0001	 2.021505E+0003	-1.207310E+0002	 7.347697E-0001
 7.717402E+0000	 2.500002E+0001	 2.029325E+0003	-1.206810E+0002	 7.350425E-0001
 7.727411E+0000	 2.500002E+0001	 2.037146E+0003	-1.206230E+0002	 7.350765E-0001
 7.737421E+0000	 2.500002E+0001	 2.044966E+0003	-1.205570E+0002	 7.347919E-0001
 7.747430E+0000	 2.500002E+0001	 2.052786E+0003	-1.204720E+0002	 7.351050E-0001
 7.757440E+0000	 2.500002E+0001	 2.060606E+0003	-1.204040E+0002	 7.351348E-0001
 7.767450E+0000	 2.500002E+0001	 2.068426E+0003	-1.203320E+0002	 7.353721E-0001
 7.777459E+0000	 2.500002E+0001	 2.076246E+0003	-1.202390E+0002	 7.352610E-0001
 7.787469E+0000	 2.500002E+0001	 2.084067E+0003	-1.201620E+0002	 7.352957E-0001
 7.797478E+0000	 2.500002E+0001	 2.091887E+0003	-1.200950E+0002	 7.354831E-0001
 7.807488E+0000	 2.500002E+0001	 2.099707E+0003	-1.200370E+0002	 7.354178E-0001
 7.817498E+0000	 2.500002E+0001	 2.107527E+0003	-1.199850E+0002	 7.355328E-0001
 7.827507E+0000	 2.500002E+0001	 2.115347E+0003	-1.198990E+0002	 7.355944E-0001
 7.837517E+0000	 2.500002E+0001	 2.123167E+0003	-1.198140E+0002	 7.356187E-0001
 7.847526E+0000	 2.500002E+0001	 2.130987E+0003	-1.197530E+0002	 7.358863E-0001
 7.857536E+0000	 2.500002E+0001	 2.138807E+0003	-1.196850E+0002	 7.356730E-0001
 7.867546E+0000	 2.500002E+0001	 2.146628E+0003	-1.195990E+0002	 7.357780E-0001
 7.877555E+0000	 2.500002E+0001	 2.154448E+0003	-1.195150E+0002	 7.359677E-0001
 7.887565E+0000	 2.500002E+0001	 2.162268E+0003	-1.194510E+0002	 7.359489E-0001
 7.897574E+0000	 2.500002E+0001	 2.170088E+0003	-1.193970E+0002	 7.360328E-0001
 7.907584E+0000	 2.500002E+0001	 2.177908E+0003	-1.192920E+0002	 7.360549E-0001
 7.917594E+0000	 2.500002E+0001	 2.185728E+0003	-1.192430E+0002	 7.361666E-0001
 7.927603E+0000	 2.500002E+0001	 2.193548E+0003	-1.191690E+0002	 7.363002E-0001
 7.937613E+0000	 2.500002E+0001	 2.201369E+0003	-1.191000E+0002	 7.364505E-0001
 7.947622E+0000	 2.500002E+0001	 2.209189E+0003	-1.190310E+0002	 7.361784E-0001
 7.957632E+0000	 2.500002E+0001	 2.217009E+0003	-1.189540E+0002	 7.363551E-0001
 7.967642E+0000	 2.500002E+0001	 2.224829E+0003	-1.188450E+0002	 7.362502E-0001
 7.977651E+0000	 2.500002E+0001	 2.232649E+0003	-1.187910E+0002	 7.362302E-0001
 7.987661E+0000	 2.500002E+0001	 2.240469E+0003	-1.187150E+0002	 7.364439E-0001
 7.997670E+0000	 2.500002E+0001	 2.248289E+0003	-1.186280E+0002	 7.366586E-0001
 8.007680E+0000	 2.500002E+0001	 2.256109E+0003	-1.185530E+0002	 7.366850E-0001
 8.017690E+0000	 2.500002E+0001	 2.263930E+0003	-1.184670E+0002	 7.365699E-0001
 8.027699E+0000	 2.500002E+0001	 2.271750E+0003	-1.183660E+0002	 7.366121E-0001
 8.037709E+0000	 2.500002E+0001	 2.279570E+0003	-1.183060E+0002	 7.368211E-0001
 8.047718E+0000	 2.500002E+0001	 2.287390E+0003	-1.182360E+0002	 7.365703E-0001
 8.057728E+0000	 2.500002E+0001	 2.295210E+0003	-1.181530E+0002	 7.367899E-0001
 8.067738E+0000	 2.500002E+0001	 2.303030E+0003	-1.181000E+0002	 7.366908E-0001
 8.077747E+0000	 2.500002E+0001	 2.310850E+0003	-1.180050E+0002	 7.367030E-0001
 8.087757E+0000	 2.500002E+0001	 2.318671E+0003	-1.179110E+0002	 7.367805E-0001
 8.097766E+0000	 2.500002E+0001	 2.326491E+0003	-1.178490E+0002	 7.367124E-0001
 8.107776E+0000	 2.500002E+0001	 2.334311E+0003	-1.177600E+0002	 7.367110E-0001
 8.117786E+0000	 2.500002E+0001	 2.342131E+0003	-1.176880E+0002	 7.367833E-0001
 8.127795E+0000	 2.500002E+0001	 2.349951E+0003	-1.175800E+0002	 7.370219E-0001
 8.137805E+0000	 2.500002E+0001	 2.357771E+0003	-1.175090E+0002	 7.369288E-0001
 8.147814E+0000	 2.500002E+0001	 2.365591E+0003	-1.174140E+0002	 7.366655E-0001
 8.157824E+0000	 2.500002E+0001	 2.373412E+0003	-1.173280E+0002	 7.368383E-0001
 8.167834E+0000	 2.500002E+0001	 2.381232E+0003	-1.172640E+0002	 7.367718E-0001
 8.177843E+0000	 2.500002E+0001	 2.389052E+0003	-1.171910E+0002	 7.370899E-0001
 8.187853E+0000	 2.500002E+0001	 2.396872E+0003	-1.171020E+0002	 7.367861E-0001
 8.197862E+0000	 2.500002E+0001	 2.404692E+0003	-1.170480E+0002	 7.367330E-0001
 8.207872E+0000	 2.500002E+0001	 2.412512E+0003	-1.169620E+0002	 7.368778E-0001
 8.217882E+0000	 2.500002E+0001	 2.420332E+0003	-1.168670E+0002	 7.370821E-0001
 8.227891E+0000	 2.500002E+0001	 2.428153E+0003	-1.167580E+0002	 7.370034E-0001
 8.237901E+0000	 2.500002E+0001	 2.435973E+0003	-1.166830E+0002	 7.371399E-0001
 8.247910E+0000	 2.500002E+0001	 2.443793E+0003	-1.166010E+0002	 7.369607E-0001
 8.257920E+0000	 2.500002E+0001	 2.451613E+0003	-1.165370E+0002	 7.370826E-0001
 8.267930E+0000	 2.500002E+0001	 2.459433E+0003	-1.164480E+0002	 7.369242E-0001
 8.277939E+0000	 2.500002E+0001	 2.467253E+0003	-1.163800E+0002	 7.370961E-0001
 8.287949E+0000	 2.500002E+0001	 2.475073E+0003	-1.163180E+0002	 7.370317E-0001
 8.297958E+0000	 2.500002E+0001	 2.482893E+0003	-1.162180E+0002	 7.369127E-0001
 8.307968E+0000	 2.500002E+0001	 2.490714E+0003	-1.161330E+0002	 7.369858E-0001
 8.317978E+0000	 2.500002E+0001	 2.498534E+0003	-1.160340E+0002	 7.367979E-0001
 8.327987E+0000	 2.500002E+0001	 2.506354E+0003	-1.159510E+0002	 7.368320E-0001
 8.337997E+0000	 2.500002E+0001	 2.514174E+0003	-1.158580E+0002	 7.367438E-0001
 8.348006E+0000	 2.500002E+0001	 2.521994E+0003	-1.157880E+0002	 7.369601E-0001
 8.358016E+0000	 2.500002E+0001	 2.529814E+0003	-1.157110E+0002	 7.368797E-0001
 8.368026E+0000	 2.500002E+0001	 2.537634E+0003	-1.156100E+0002	 7.367835E-0001
 8.378035E+0000	 2.500002E+0001	 2.545455E+0003	-1.155670E+0002	 7.366639E-0001
 8.388045E+0000	 2.500002E+0001	 2.553275E+0003	-1.154690E+0002	 7.367468E-0001
 8.398054E+0000	 2.500002E+0001	 2.561095E+0003	-1.153670E+0002	 7.368829E-0001
 8.408064E+0000	 2.500002E+0001	 2.568915E+0003	-1.152920E+0002	 7.366382E-0001
 8.418074E+0000	 2.500002E+0001	 2.576735E+0003	-1.151730E+0002	 7.367116E-0001
 8.428083E+0000	 2.500002E+0001	 2.584555E+0003	-1.150940E+0002	 7.365598E-0001
 8.438093E+0000	 2.500002E+0001	 2.592375E+0003	-1.150130E+0002	 7.365148E-0001
 8.448102E+0000	 2.500002E+0001	 2.600196E+0003	-1.149340E+0002	 7.367078E-0001
 8.458112E+0000	 2.500002E+0001	 2.608016E+0003	-1.148730E+0002	 7.364226E-0001
 8.468122E+0000	 2.500002E+0001	 2.615836E+0003	-1.148020E+0002	 7.366339E-0001
 8.478131E+0000	 2.500002E+0001	 2.623656E+0003	-1.146990E+0002	 7.367273E-0001
 8.488141E+0000	 2.500002E+0001	 2.631476E+0003	-1.145900E+0002	 7.368372E-0001
 8.498150E+0000	 2.500002E+0001	 2.639296E+0003	-1.144770E+0002	 7.366306E-0001
 8.508160E+0000	 2.500002E+0001	 2.647116E+0003	-1.143890E+0002	 7.365621E-0001
 8.518170E+0000	 2.500002E+0001	 2.654936E+0003	-1.142830E+0002	 7.363872E-0001
 8.528179E+0000	 2.500002E+0001	 2.662757E+0003	-1.141640E+0002	 7.363335E-0001
 8.538189E+0000	 2.500002E+0001	 2.670577E+0003	-1.141160E+0002	 7.364680E-0001
 8.548198E+0000	 2.500002E+0001	 2.678397E+0003	-1.140520E+0002	 7.365059E-0001
 8.558208E+0000	 2.500002E+0001	 2.686217E+0003	-1.139960E+0002	 7.363273E-0001
 8.568218E+0000	 2.500002E+0001	 2.694037E+0003	-1.138580E+0002	 7.363431E-0001
 8.578227E+0000	 2.500002E+0001	 2.701857E+0003	-1.137780E+0002	 7.362932E-0001
 8.588237E+0000	 2.500002E+0001	 2.709678E+0003	-1.136400E+0002	 7.361813E-0001
 8.598246E+0000	 2.500002E+0001	 2.717498E+0003	-1.135490E+0002	 7.360987E-0001
 8.608256E+0000	 2.500002E+0001	 2.725318E+0003	-1.134540E+0002	 7.361217E-0001
 8.618266E+0000	 2.500002E+0001	 2.733138E+0003	-1.133820E+0002	 7.360117E-0001
 8.628275E+0000	 2.500002E+0001	 2.740958E+0003	-1.132980E+0002	 7.359943E-0001
 8.638285E+0000	 2.500002E+0001	 2.748778E+0003	-1.131880E+0002	 7.360235E-0001
 8.648294E+0000	 2.500002E+0001	 2.756598E+0003	-1.130580E+0002	 7.359138E-0001
 8.658304E+0000	 2.500002E+0001	 2.764418E+0003	-1.129620E+0002	 7.358943E-0001
 8.668314E+0000	 2.500002E+0001	 2.772238E+0003	-1.129110E+0002	 7.356184E-0001
 8.678323E+0000	 2.500002E+0001	 2.780059E+0003	-1.128060E+0002	 7.356836E-0001
 8.688333E+0000	 2.500002E+0001	 2.787879E+0003	-1.126870E+0002	 7.354719E-0001
 8.698342E+0000	 2.500002E+0001	 2.795699E+0003	-1.125940E+0002	 7.353308E-0001
 8.708352E+0000	 2.500002E+0001	 2.803519E+0003	-1.124990E+0002	 7.352951E-0001
 8.718362E+0000	 2.500002E+0001	 2.811339E+0003	-1.124580E+0002	 7.351417E-0001
 8.728371E+0000	 2.500002E+0001	 2.819159E+0003	-1.123600E+0002	 7.353797E-0001
 8.738381E+0000	 2.500002E+0001	 2.826980E+0003	-1.122560E+0002	 7.352574E-0001
 8.748390E+0000	 2.500002E+0001	 2.834800E+0003	-1.121640E+0002	 7.352114E-0001
 8.758400E+0000	 2.500002E+0001	 2.842620E+0003	-1.120390E+0002	 7.352176E-0001
 8.768410E+0000	 2.500002E+0001	 2.850440E+0003	-1.119440E+0002	 7.350132E-0001
 8.778419E+0000	 2.500002E+0001	 2.858260E+0003	-1.118640E+0002	 7.349530E-0001
 8.788429E+0000	 2.500002E+0001	 2.866080E+0003	-1.117750E+0002	 7.346871E-0001
 8.798438E+0000	 2.500002E+0001	 2.873900E+0003	-1.116750E+0002	 7.347312E-0001
 8.808448E+0000	 2.500002E+0001	 2.881720E+0003	-1.115820E+0002	 7.346368E-0001
 8.818458E+0000	 2.500002E+0001	 2.889541E+0003	-1.114700E+0002	 7.345144E-0001
 8.828467E+0000	 2.500002E+0001	 2.897361E+0003	-1.113970E+0002	 7.343012E-0001
 8.838477E+0000	 2.500002E+0001	 2.905181E+0003	-1.112470E+0002	 7.341081E-0001
 8.848486E+0000	 2.500002E+0001	 2.913001E+0003	-1.111340E+0002	 7.342538E-0001
 8.858496E+0000	 2.500002E+0001	 2.920821E+0003	-1.110260E+0002	 7.340565E-0001
 8.868506E+0000	 2.500002E+0001	 2.928641E+0003	-1.109460E+0002	 7.337175E-0001
 8.878515E+0000	 2.500002E+0001	 2.936461E+0003	-1.108690E+0002	 7.336739E-0001
 8.888525E+0000	 2.500002E+0001	 2.944282E+0003	-1.107910E+0002	 7.336743E-0001
 8.898534E+0000	 2.500002E+0001	 2.952102E+0003	-1.107090E+0002	 7.335879E-0001
 8.908544E+0000	 2.500002E+0001	 2.959922E+0003	-1.105720E+0002	 7.332982E-0001
 8.918554E+0000	 2.500002E+0001	 2.967742E+0003	-1.104380E+0002	 7.331919E-0001
 8.928563E+0000	 2.500002E+0001	 2.975562E+0003	-1.103030E+0002	 7.330293E-0001
 8.938573E+0000	 2.500002E+0001	 2.983382E+0003	-1.102080E+0002	 7.328150E-0001
 8.948582E+0000	 2.500002E+0001	 2.991202E+0003	-1.101720E+0002	 7.328032E-0001
 8.958592E+0000	 2.500002E+0001	 2.999022E+0003	-1.101100E+0002	 7.326527E-0001
 8.968602E+0000	 2.500002E+0001	 3.006843E+0003	-1.100260E+0002	 7.326690E-0001
 8.978611E+0000	 2.500002E+0001	 3.014663E+0003	-1.098880E+0002	 7.323045E-0001
 8.988621E+0000	 2.500002E+0001	 3.022483E+0003	-1.097500E+0002	 7.321030E-0001
 8.998630E+0000	 2.500002E+0001	 3.030303E+0003	-1.096410E+0002	 7.318827E-0001
 9.008640E+0000	 2.500002E+0001	 3.038123E+0003	-1.095570E+0002	 7.317386E-0001
 9.018650E+0000	 2.500002E+0001	 3.045943E+0003	-1.094450E+0002	 7.318173E-0001
 9.028659E+0000	 2.500002E+0001	 3.053763E+0003	-1.093420E+0002	 7.317028E-0001
 9.038669E+0000	 2.500002E+0001	 3.061584E+0003	-1.092470E+0002	 7.313940E-0001
 9.048678E+0000	 2.500002E+0001	 3.069404E+0003	-1.091410E+0002	 7.314049E-0001
 9.058688E+0000	 2.500002E+0001	 3.077224E+0003	-1.090780E+0002	 7.313150E-0001
 9.068698E+0000	 2.500002E+0001	 3.085044E+0003	-1.089520E+0002	 7.309220E-0001
 9.078707E+0000	 2.500002E+0001	 3.092864E+0003	-1.088590E+0002	 7.309089E-0001
 9.088717E+0000	 2.500002E+0001	 3.100684E+0003	-1.087450E+0002	 7.305901E-0001
 9.098726E+0000	 2.500002E+0001	 3.108504E+0003	-1.086680E+0002	 7.302078E-0001
 9.108736E+0000	 2.500002E+0001	 3.116325E+0003	-1.085760E+0002	 7.303040E-0001
 9.118746E+0000	 2.500002E+0001	 3.124145E+0003	-1.084840E+0002	 7.302013E-0001
 9.128755E+0000	 2.500002E+0001	 3.131965E+0003	-1.083720E+0002	 7.300271E-0001
 9.138765E+0000	 2.500002E+0001	 3.139785E+0003	-1.082850E+0002	 7.299083E-0001
 9.148774E+0000	 2.500002E+0001	 3.147605E+0003	-1.081490E+0002	 7.297944E-0001
 9.158784E+0000	 2.500002E+0001	 3.155425E+0003	-1.080070E+0002	 7.292743E-0001
 9.168794E+0000	 2.500002E+0001	 3.163245E+0003	-1.078330E+0002	 7.288794E-0001
 9.178803E+0000	 2.500002E+0001	 3.171066E+0003	-1.077660E+0002	 7.289289E-0001
 9.188813E+0000	 2.500002E+0001	 3.178886E+0003	-1.077200E+0002	 7.287494E-0001
 9.198822E+0000	 2.500002E+0001	 3.186706E+0003	-1.076060E+0002	 7.285275E-0001
 9.208832E+0000	 2.500002E+0001	 3.194526E+0003	-1.075640E+0002	 7.284895E-0001
 9.218842E+0000	 2.500002E+0001	 3.202346E+0003	-1.074450E+0002	 7.282531E-0001
 9.228851E+0000	 2.500002E+0001	 3.210166E+0003	-1.073300E+0002	 7.281073E-0001
 9.238861E+0000	 2.500002E+0001	 3.217986E+0003	-1.071860E+0002	 7.278501E-0001
 9.248870E+0000	 2.500002E+0001	 3.225807E+0003	-1.070730E+0002	 7.275599E-0001
 9.258880E+0000	 2.500002E+0001	 3.233627E+0003	-1.069370E+0002	 7.274368E-0001
 9.268890E+0000	 2.500002E+0001	 3.241447E+0003	-1.068420E+0002	 7.270345E-0001
 9.278899E+0000	 2.500002E+0001	 3.249267E+0003	-1.067780E+0002	 7.269561E-0001
 9.288909E+0000	 2.500002E+0001	 3.257087E+0003	-1.067000E+0002	 7.267685E-0001
 9.298918E+0000	 2.500002E+0001	 3.264907E+0003	-1.066030E+0002	 7.266381E-0001
 9.308928E+0000	 2.500002E+0001	 3.272727E+0003	-1.064860E+0002	 7.263543E-0001
 9.318938E+0000	 2.500002E+0001	 3.280547E+0003	-1.063480E+0002	 7.259834E-0001
 9.328947E+0000	 2.500002E+0001	 3.288368E+0003	-1.062310E+0002	 7.257114E-0001
 9.338957E+0000	 2.500002E+0001	 3.296188E+0003	-1.061000E+0002	 7.252350E-0001
 9.348966E+0000	 2.500002E+0001	 3.304008E+0003	-1.060130E+0002	 7.252259E-0001
 9.358976E+0000	 2.500002E+0001	 3.311828E+0003	-1.059230E+0002	 7.251797E-0001
 9.368986E+0000	 2.500002E+0001	 3.319648E+0003	-1.058560E+0002	 7.247941E-0001
 9.378995E+0000	 2.500002E+0001	 3.327468E+0003	-1.057260E+0002	 7.245546E-0001
 9.389005E+0000	 2.500002E+0001	 3.335288E+0003	-1.056080E+0002	 7.242608E-0001
 9.399014E+0000	 2.500002E+0001	 3.343109E+0003	-1.054980E+0002	 7.240383E-0001
 9.409024E+0000	 2.500002E+0001	 3.350929E+0003	-1.053310E+0002	 7.237906E-0001
 9.419034E+0000	 2.500002E+0001	 3.358749E+0003	-1.052080E+0002	 7.232798E-0001
 9.429043E+0000	 2.500002E+0001	 3.366569E+0003	-1.050700E+0002	 7.229084E-0001
 9.439053E+0000	 2.500002E+0001	 3.374389E+0003	-1.049320E+0002	 7.225722E-0001
 9.449062E+0000	 2.500002E+0001	 3.382209E+0003	-1.048910E+0002	 7.224287E-0001
 9.459072E+0000	 2.500002E+0001	 3.390029E+0003	-1.048390E+0002	 7.223826E-0001
 9.469082E+0000	 2.500002E+0001	 3.397849E+0003	-1.048030E+0002	 7.222375E-0001
 9.479091E+0000	 2.500002E+0001	 3.405670E+0003	-1.046530E+0002	 7.221071E-0001
 9.489101E+0000	 2.500002E+0001	 3.413490E+0003	-1.044920E+0002	 7.216988E-0001
 9.499110E+0000	 2.500002E+0001	 3.421310E+0003	-1.043470E+0002	 7.211892E-0001
 9.509120E+0000	 2.500002E+0001	 3.429130E+0003	-1.041930E+0002	 7.208410E-0001
 9.519130E+0000	 2.500002E+0001	 3.436950E+0003	-1.040990E+0002	 7.206170E-0001
 9.529139E+0000	 2.500002E+0001	 3.444770E+0003	-1.040310E+0002	 7.205095E-0001
 9.539149E+0000	 2.500002E+0001	 3.452591E+0003	-1.039580E+0002	 7.202660E-0001
 9.549158E+0000	 2.500002E+0001	 3.460411E+0003	-1.038820E+0002	 7.200681E-0001
 9.559168E+0000	 2.500002E+0001	 3.468231E+0003	-1.037590E+0002	 7.195548E-0001
 9.569178E+0000	 2.500002E+0001	 3.476051E+0003	-1.036270E+0002	 7.193115E-0001
 9.579187E+0000	 2.500002E+0001	 3.483871E+0003	-1.035370E+0002	 7.190874E-0001
 9.589197E+0000	 2.500002E+0001	 3.491691E+0003	-1.033830E+0002	 7.186741E-0001
 9.599206E+0000	 2.500002E+0001	 3.499511E+0003	-1.032610E+0002	 7.184352E-0001
 9.609216E+0000	 2.500002E+0001	 3.507331E+0003	-1.031480E+0002	 7.180203E-0001
 9.619226E+0000	 2.500002E+0001	 3.515152E+0003	-1.030330E+0002	 7.175109E-0001
 9.629235E+0000	 2.500002E+0001	 3.522972E+0003	-1.029910E+0002	 7.174238E-0001
 9.639245E+0000	 2.500002E+0001	 3.530792E+0003	-1.029130E+0002	 7.170730E-0001
 9.649254E+0000	 2.500002E+0001	 3.538612E+0003	-1.027690E+0002	 7.169621E-0001
 9.659264E+0000	 2.500002E+0001	 3.546432E+0003	-1.026840E+0002	 7.164096E-0001
 9.669274E+0000	 2.500002E+0001	 3.554252E+0003	-1.025710E+0002	 7.162834E-0001
 9.679283E+0000	 2.500002E+0001	 3.562072E+0003	-1.024870E+0002	 7.158501E-0001
 9.689293E+0000	 2.500002E+0001	 3.569893E+0003	-1.023560E+0002	 7.155552E-0001
 9.699302E+0000	 2.500002E+0001	 3.577713E+0003	-1.022940E+0002	 7.154765E-0001
 9.709312E+0000	 2.500002E+0001	 3.585533E+0003	-1.022030E+0002	 7.152434E-0001
 9.719322E+0000	 2.500002E+0001	 3.593353E+0003	-1.020880E+0002	 7.147964E-0001
 9.729331E+0000	 2.500002E+0001	 3.601173E+0003	-1.019550E+0002	 7.142464E-0001
 9.739341E+0000	 2.500002E+0001	 3.608993E+0003	-1.018410E+0002	 7.136599E-0001
 9.749350E+0000	 2.500002E+0001	 3.616813E+0003	-1.016450E+0002	 7.134088E-0001
 9.759360E+0000	 2.500002E+0001	 3.624633E+0003	-1.015430E+0002	 7.130002E-0001
 9.769370E+0000	 2.500002E+0001	 3.632454E+0003	-1.014720E+0002	 7.128626E-0001
 9.779379E+0000	 2.500002E+0001	 3.640274E+0003	-1.013730E+0002	 7.126450E-0001
 9.789389E+0000	 2.500002E+0001	 3.648094E+0003	-1.013060E+0002	 7.121883E-0001
 9.799398E+0000	 2.500002E+0001	 3.655914E+0003	-1.012040E+0002	 7.120872E-0001
 9.809408E+0000	 2.500002E+0001	 3.663734E+0003	-1.010720E+0002	 7.116311E-0001
 9.819418E+0000	 2.500002E+0001	 3.671554E+0003	-1.009550E+0002	 7.111852E-0001
 9.829427E+0000	 2.500002E+0001	 3.679374E+0003	-1.008150E+0002	 7.108145E-0001
 9.839437E+0000	 2.500002E+0001	 3.687195E+0003	-1.007010E+0002	 7.100397E-0001
 9.849446E+0000	 2.500002E+0001	 3.695015E+0003	-1.005850E+0002	 7.098544E-0001
 9.859456E+0000	 2.500002E+0001	 3.702835E+0003	-1.005090E+0002	 7.093403E-0001
 9.869466E+0000	 2.500002E+0001	 3.710655E+0003	-1.004280E+0002	 7.092465E-0001
 9.879475E+0000	 2.500002E+0001	 3.718475E+0003	-1.003480E+0002	 7.088095E-0001
 9.889485E+0000	 2.500002E+0001	 3.726295E+0003	-1.002120E+0002	 7.081789E-0001
 9.899494E+0000	 2.500002E+0001	 3.734115E+0003	-1.000770E+0002	 7.080093E-0001
 9.909504E+0000	 2.500002E+0001	 3.741936E+0003	-9.994600E+0001	 7.075039E-0001
 9.919514E+0000	 2.500002E+0001	 3.749756E+0003	-9.983500E+0001	 7.070554E-0001
 9.929523E+0000	 2.500002E+0001	 3.757576E+0003	-9.968600E+0001	 7.064684E-0001
 9.939533E+0000	 2.500002E+0001	 3.765396E+0003	-9.958800E+0001	 7.060231E-0001
 9.949542E+0000	 2.500002E+0001	 3.773216E+0003	-9.948300E+0001	 7.057301E-0001
 9.959552E+0000	 2.500002E+0001	 3.781036E+0003	-9.942100E+0001	 7.054406E-0001
 9.969562E+0000	 2.500002E+0001	 3.788856E+0003	-9.928900E+0001	 7.050282E-0001
 9.979571E+0000	 2.500002E+0001	 3.796676E+0003	-9.920200E+0001	 7.048261E-0001
 9.989581E+0000	 2.500002E+0001	 3.804497E+0003	-9.908000E+0001	 7.042215E-0001
 9.999590E+0000	 2.500002E+0001	 3.812317E+0003	-9.891600E+0001	 7.038476E-0001
 1.000960E+0001	 2.500002E+0001	 3.820137E+0003	-9.876900E+0001	 7.030936E-0001
 1.001961E+0001	 2.500002E+0001	 3.827957E+0003	-9.861300E+0001	 7.026638E-0001
 1.002961E+0001	 2.500002E+0001	 3.835777E+0003	-9.854600E+0001	 7.022046E-0001
 1.003962E+0001	 2.500002E+0001	 3.843597E+0003	-9.840900E+0001	 7.016770E-0001
 1.004963E+0001	 2.500002E+0001	 3.851418E+0003	-9.830900E+0001	 7.014286E-0001
 1.005964E+0001	 2.500002E+0001	 3.859238E+0003	-9.823100E+0001	 7.010245E-0001
 1.006965E+0001	 2.500002E+0001	 3.867058E+0003	-9.816500E+0001	 7.008281E-0001
 1.007966E+0001	 2.500002E+0001	 3.874878E+0003	-9.808700E+0001	 7.007666E-0001
 1.008967E+0001	 2.500002E+0001	 3.882698E+0003	-9.797200E+0001	 7.000391E-0001
 1.009968E+0001	 2.500002E+0001	 3.890518E+0003	-9.784300E+0001	 6.994695E-0001
 1.010969E+0001	 2.500002E+0001	 3.898338E+0003	-9.766500E+0001	 6.990672E-0001
 1.011970E+0001	 2.500002E+0001	 3.906158E+0003	-9.759400E+0001	 6.987298E-0001
 1.012971E+0001	 2.500002E+0001	 3.913979E+0003	-9.751500E+0001	 6.983193E-0001
 1.013972E+0001	 2.500002E+0001	 3.921799E+0003	-9.739300E+0001	 6.978293E-0001
 1.014973E+0001	 2.500002E+0001	 3.929619E+0003	-9.726400E+0001	 6.973507E-0001
 1.015974E+0001	 2.500002E+0001	 3.937439E+0003	-9.713200E+0001	 6.965942E-0001
 1.016975E+0001	 2.500002E+0001	 3.945259E+0003	-9.705300E+0001	 6.963620E-0001
 1.017976E+0001	 2.500002E+0001	 3.953079E+0003	-9.695100E+0001	 6.959152E-0001
 1.018977E+0001	 2.500002E+0001	 3.960899E+0003	-9.680300E+0001	 6.953545E-0001
 1.019978E+0001	 2.500002E+0001	 3.968720E+0003	-9.667400E+0001	 6.948037E-0001
 1.020979E+0001	 2.500002E+0001	 3.976540E+0003	-9.655800E+0001	 6.944050E-0001
 1.021980E+0001	 2.500002E+0001	 3.984360E+0003	-9.646900E+0001	 6.937250E-0001
 1.022981E+0001	 2.500002E+0001	 3.992180E+0003	-9.635300E+0001	 6.932724E-0001
 1.023982E+0001	 2.500002E+0001	 4.000000E+0003	-9.623800E+0001	 6.929771E-0001
